~o
<STREAMINFO> 1 39
<VECSIZE> 39<NULLD><MFCC_E_D_A_Z><DIAGC>
~h "hmmdef"
<BEGINHMM>
<NUMSTATES> 15
<STATE> 2
<MEAN> 39
 -5.443890e-09 -1.903262e-09 -1.656958e-09 -3.481850e-09 1.383784e-08 1.372588e-08 1.325846e-08 4.623808e-09 5.217178e-09 1.175544e-10 4.136796e-09 -1.043156e-08 7.100832e-01 1.332749e-02 -2.589554e-02 -1.775302e-03 1.820766e-02 1.440493e-02 -1.096843e-02 -1.403559e-02 -2.681339e-02 -6.095383e-03 2.780388e-03 -1.148309e-03 -4.305872e-03 1.331587e-03 -9.053766e-03 -3.783373e-03 4.780938e-03 2.122159e-03 6.131099e-03 8.621849e-03 7.099923e-03 9.842545e-03 9.067066e-03 1.861111e-03 4.151787e-04 1.593729e-04 -1.564158e-03
<VARIANCE> 39
 4.872062e+01 8.793838e+01 4.467797e+01 5.986338e+01 4.655360e+01 5.547995e+01 5.233105e+01 5.238747e+01 4.623670e+01 4.285939e+01 4.554256e+01 4.065517e+01 8.178990e-02 2.131718e+00 2.467501e+00 2.295796e+00 3.263000e+00 2.705515e+00 3.277761e+00 3.157426e+00 3.330884e+00 3.002590e+00 2.830695e+00 2.829966e+00 2.573833e+00 3.754082e-03 3.006853e-01 3.204699e-01 3.548017e-01 5.152389e-01 4.554175e-01 5.507924e-01 5.410464e-01 5.677052e-01 5.208370e-01 4.984413e-01 4.887287e-01 4.422380e-01 3.730629e-04
<GCONST> 1.056898e+02
<STATE> 3
<MEAN> 39
 -5.443890e-09 -1.903262e-09 -1.656958e-09 -3.481850e-09 1.383784e-08 1.372588e-08 1.325846e-08 4.623808e-09 5.217178e-09 1.175544e-10 4.136796e-09 -1.043156e-08 7.100832e-01 1.332749e-02 -2.589554e-02 -1.775302e-03 1.820766e-02 1.440493e-02 -1.096843e-02 -1.403559e-02 -2.681339e-02 -6.095383e-03 2.780388e-03 -1.148309e-03 -4.305872e-03 1.331587e-03 -9.053766e-03 -3.783373e-03 4.780938e-03 2.122159e-03 6.131099e-03 8.621849e-03 7.099923e-03 9.842545e-03 9.067066e-03 1.861111e-03 4.151787e-04 1.593729e-04 -1.564158e-03
<VARIANCE> 39
 4.872062e+01 8.793838e+01 4.467797e+01 5.986338e+01 4.655360e+01 5.547995e+01 5.233105e+01 5.238747e+01 4.623670e+01 4.285939e+01 4.554256e+01 4.065517e+01 8.178990e-02 2.131718e+00 2.467501e+00 2.295796e+00 3.263000e+00 2.705515e+00 3.277761e+00 3.157426e+00 3.330884e+00 3.002590e+00 2.830695e+00 2.829966e+00 2.573833e+00 3.754082e-03 3.006853e-01 3.204699e-01 3.548017e-01 5.152389e-01 4.554175e-01 5.507924e-01 5.410464e-01 5.677052e-01 5.208370e-01 4.984413e-01 4.887287e-01 4.422380e-01 3.730629e-04
<GCONST> 1.056898e+02
<STATE> 4
<MEAN> 39
 -5.443890e-09 -1.903262e-09 -1.656958e-09 -3.481850e-09 1.383784e-08 1.372588e-08 1.325846e-08 4.623808e-09 5.217178e-09 1.175544e-10 4.136796e-09 -1.043156e-08 7.100832e-01 1.332749e-02 -2.589554e-02 -1.775302e-03 1.820766e-02 1.440493e-02 -1.096843e-02 -1.403559e-02 -2.681339e-02 -6.095383e-03 2.780388e-03 -1.148309e-03 -4.305872e-03 1.331587e-03 -9.053766e-03 -3.783373e-03 4.780938e-03 2.122159e-03 6.131099e-03 8.621849e-03 7.099923e-03 9.842545e-03 9.067066e-03 1.861111e-03 4.151787e-04 1.593729e-04 -1.564158e-03
<VARIANCE> 39
 4.872062e+01 8.793838e+01 4.467797e+01 5.986338e+01 4.655360e+01 5.547995e+01 5.233105e+01 5.238747e+01 4.623670e+01 4.285939e+01 4.554256e+01 4.065517e+01 8.178990e-02 2.131718e+00 2.467501e+00 2.295796e+00 3.263000e+00 2.705515e+00 3.277761e+00 3.157426e+00 3.330884e+00 3.002590e+00 2.830695e+00 2.829966e+00 2.573833e+00 3.754082e-03 3.006853e-01 3.204699e-01 3.548017e-01 5.152389e-01 4.554175e-01 5.507924e-01 5.410464e-01 5.677052e-01 5.208370e-01 4.984413e-01 4.887287e-01 4.422380e-01 3.730629e-04
<GCONST> 1.056898e+02
<STATE> 5
<MEAN> 39
 -5.443890e-09 -1.903262e-09 -1.656958e-09 -3.481850e-09 1.383784e-08 1.372588e-08 1.325846e-08 4.623808e-09 5.217178e-09 1.175544e-10 4.136796e-09 -1.043156e-08 7.100832e-01 1.332749e-02 -2.589554e-02 -1.775302e-03 1.820766e-02 1.440493e-02 -1.096843e-02 -1.403559e-02 -2.681339e-02 -6.095383e-03 2.780388e-03 -1.148309e-03 -4.305872e-03 1.331587e-03 -9.053766e-03 -3.783373e-03 4.780938e-03 2.122159e-03 6.131099e-03 8.621849e-03 7.099923e-03 9.842545e-03 9.067066e-03 1.861111e-03 4.151787e-04 1.593729e-04 -1.564158e-03
<VARIANCE> 39
 4.872062e+01 8.793838e+01 4.467797e+01 5.986338e+01 4.655360e+01 5.547995e+01 5.233105e+01 5.238747e+01 4.623670e+01 4.285939e+01 4.554256e+01 4.065517e+01 8.178990e-02 2.131718e+00 2.467501e+00 2.295796e+00 3.263000e+00 2.705515e+00 3.277761e+00 3.157426e+00 3.330884e+00 3.002590e+00 2.830695e+00 2.829966e+00 2.573833e+00 3.754082e-03 3.006853e-01 3.204699e-01 3.548017e-01 5.152389e-01 4.554175e-01 5.507924e-01 5.410464e-01 5.677052e-01 5.208370e-01 4.984413e-01 4.887287e-01 4.422380e-01 3.730629e-04
<GCONST> 1.056898e+02
<STATE> 6
<MEAN> 39
 -5.443890e-09 -1.903262e-09 -1.656958e-09 -3.481850e-09 1.383784e-08 1.372588e-08 1.325846e-08 4.623808e-09 5.217178e-09 1.175544e-10 4.136796e-09 -1.043156e-08 7.100832e-01 1.332749e-02 -2.589554e-02 -1.775302e-03 1.820766e-02 1.440493e-02 -1.096843e-02 -1.403559e-02 -2.681339e-02 -6.095383e-03 2.780388e-03 -1.148309e-03 -4.305872e-03 1.331587e-03 -9.053766e-03 -3.783373e-03 4.780938e-03 2.122159e-03 6.131099e-03 8.621849e-03 7.099923e-03 9.842545e-03 9.067066e-03 1.861111e-03 4.151787e-04 1.593729e-04 -1.564158e-03
<VARIANCE> 39
 4.872062e+01 8.793838e+01 4.467797e+01 5.986338e+01 4.655360e+01 5.547995e+01 5.233105e+01 5.238747e+01 4.623670e+01 4.285939e+01 4.554256e+01 4.065517e+01 8.178990e-02 2.131718e+00 2.467501e+00 2.295796e+00 3.263000e+00 2.705515e+00 3.277761e+00 3.157426e+00 3.330884e+00 3.002590e+00 2.830695e+00 2.829966e+00 2.573833e+00 3.754082e-03 3.006853e-01 3.204699e-01 3.548017e-01 5.152389e-01 4.554175e-01 5.507924e-01 5.410464e-01 5.677052e-01 5.208370e-01 4.984413e-01 4.887287e-01 4.422380e-01 3.730629e-04
<GCONST> 1.056898e+02
<STATE> 7
<MEAN> 39
 -5.443890e-09 -1.903262e-09 -1.656958e-09 -3.481850e-09 1.383784e-08 1.372588e-08 1.325846e-08 4.623808e-09 5.217178e-09 1.175544e-10 4.136796e-09 -1.043156e-08 7.100832e-01 1.332749e-02 -2.589554e-02 -1.775302e-03 1.820766e-02 1.440493e-02 -1.096843e-02 -1.403559e-02 -2.681339e-02 -6.095383e-03 2.780388e-03 -1.148309e-03 -4.305872e-03 1.331587e-03 -9.053766e-03 -3.783373e-03 4.780938e-03 2.122159e-03 6.131099e-03 8.621849e-03 7.099923e-03 9.842545e-03 9.067066e-03 1.861111e-03 4.151787e-04 1.593729e-04 -1.564158e-03
<VARIANCE> 39
 4.872062e+01 8.793838e+01 4.467797e+01 5.986338e+01 4.655360e+01 5.547995e+01 5.233105e+01 5.238747e+01 4.623670e+01 4.285939e+01 4.554256e+01 4.065517e+01 8.178990e-02 2.131718e+00 2.467501e+00 2.295796e+00 3.263000e+00 2.705515e+00 3.277761e+00 3.157426e+00 3.330884e+00 3.002590e+00 2.830695e+00 2.829966e+00 2.573833e+00 3.754082e-03 3.006853e-01 3.204699e-01 3.548017e-01 5.152389e-01 4.554175e-01 5.507924e-01 5.410464e-01 5.677052e-01 5.208370e-01 4.984413e-01 4.887287e-01 4.422380e-01 3.730629e-04
<GCONST> 1.056898e+02
<STATE> 8
<MEAN> 39
 -5.443890e-09 -1.903262e-09 -1.656958e-09 -3.481850e-09 1.383784e-08 1.372588e-08 1.325846e-08 4.623808e-09 5.217178e-09 1.175544e-10 4.136796e-09 -1.043156e-08 7.100832e-01 1.332749e-02 -2.589554e-02 -1.775302e-03 1.820766e-02 1.440493e-02 -1.096843e-02 -1.403559e-02 -2.681339e-02 -6.095383e-03 2.780388e-03 -1.148309e-03 -4.305872e-03 1.331587e-03 -9.053766e-03 -3.783373e-03 4.780938e-03 2.122159e-03 6.131099e-03 8.621849e-03 7.099923e-03 9.842545e-03 9.067066e-03 1.861111e-03 4.151787e-04 1.593729e-04 -1.564158e-03
<VARIANCE> 39
 4.872062e+01 8.793838e+01 4.467797e+01 5.986338e+01 4.655360e+01 5.547995e+01 5.233105e+01 5.238747e+01 4.623670e+01 4.285939e+01 4.554256e+01 4.065517e+01 8.178990e-02 2.131718e+00 2.467501e+00 2.295796e+00 3.263000e+00 2.705515e+00 3.277761e+00 3.157426e+00 3.330884e+00 3.002590e+00 2.830695e+00 2.829966e+00 2.573833e+00 3.754082e-03 3.006853e-01 3.204699e-01 3.548017e-01 5.152389e-01 4.554175e-01 5.507924e-01 5.410464e-01 5.677052e-01 5.208370e-01 4.984413e-01 4.887287e-01 4.422380e-01 3.730629e-04
<GCONST> 1.056898e+02
<STATE> 9
<MEAN> 39
 -5.443890e-09 -1.903262e-09 -1.656958e-09 -3.481850e-09 1.383784e-08 1.372588e-08 1.325846e-08 4.623808e-09 5.217178e-09 1.175544e-10 4.136796e-09 -1.043156e-08 7.100832e-01 1.332749e-02 -2.589554e-02 -1.775302e-03 1.820766e-02 1.440493e-02 -1.096843e-02 -1.403559e-02 -2.681339e-02 -6.095383e-03 2.780388e-03 -1.148309e-03 -4.305872e-03 1.331587e-03 -9.053766e-03 -3.783373e-03 4.780938e-03 2.122159e-03 6.131099e-03 8.621849e-03 7.099923e-03 9.842545e-03 9.067066e-03 1.861111e-03 4.151787e-04 1.593729e-04 -1.564158e-03
<VARIANCE> 39
 4.872062e+01 8.793838e+01 4.467797e+01 5.986338e+01 4.655360e+01 5.547995e+01 5.233105e+01 5.238747e+01 4.623670e+01 4.285939e+01 4.554256e+01 4.065517e+01 8.178990e-02 2.131718e+00 2.467501e+00 2.295796e+00 3.263000e+00 2.705515e+00 3.277761e+00 3.157426e+00 3.330884e+00 3.002590e+00 2.830695e+00 2.829966e+00 2.573833e+00 3.754082e-03 3.006853e-01 3.204699e-01 3.548017e-01 5.152389e-01 4.554175e-01 5.507924e-01 5.410464e-01 5.677052e-01 5.208370e-01 4.984413e-01 4.887287e-01 4.422380e-01 3.730629e-04
<GCONST> 1.056898e+02
<STATE> 10
<MEAN> 39
 -5.443890e-09 -1.903262e-09 -1.656958e-09 -3.481850e-09 1.383784e-08 1.372588e-08 1.325846e-08 4.623808e-09 5.217178e-09 1.175544e-10 4.136796e-09 -1.043156e-08 7.100832e-01 1.332749e-02 -2.589554e-02 -1.775302e-03 1.820766e-02 1.440493e-02 -1.096843e-02 -1.403559e-02 -2.681339e-02 -6.095383e-03 2.780388e-03 -1.148309e-03 -4.305872e-03 1.331587e-03 -9.053766e-03 -3.783373e-03 4.780938e-03 2.122159e-03 6.131099e-03 8.621849e-03 7.099923e-03 9.842545e-03 9.067066e-03 1.861111e-03 4.151787e-04 1.593729e-04 -1.564158e-03
<VARIANCE> 39
 4.872062e+01 8.793838e+01 4.467797e+01 5.986338e+01 4.655360e+01 5.547995e+01 5.233105e+01 5.238747e+01 4.623670e+01 4.285939e+01 4.554256e+01 4.065517e+01 8.178990e-02 2.131718e+00 2.467501e+00 2.295796e+00 3.263000e+00 2.705515e+00 3.277761e+00 3.157426e+00 3.330884e+00 3.002590e+00 2.830695e+00 2.829966e+00 2.573833e+00 3.754082e-03 3.006853e-01 3.204699e-01 3.548017e-01 5.152389e-01 4.554175e-01 5.507924e-01 5.410464e-01 5.677052e-01 5.208370e-01 4.984413e-01 4.887287e-01 4.422380e-01 3.730629e-04
<GCONST> 1.056898e+02
<STATE> 11
<MEAN> 39
 -5.443890e-09 -1.903262e-09 -1.656958e-09 -3.481850e-09 1.383784e-08 1.372588e-08 1.325846e-08 4.623808e-09 5.217178e-09 1.175544e-10 4.136796e-09 -1.043156e-08 7.100832e-01 1.332749e-02 -2.589554e-02 -1.775302e-03 1.820766e-02 1.440493e-02 -1.096843e-02 -1.403559e-02 -2.681339e-02 -6.095383e-03 2.780388e-03 -1.148309e-03 -4.305872e-03 1.331587e-03 -9.053766e-03 -3.783373e-03 4.780938e-03 2.122159e-03 6.131099e-03 8.621849e-03 7.099923e-03 9.842545e-03 9.067066e-03 1.861111e-03 4.151787e-04 1.593729e-04 -1.564158e-03
<VARIANCE> 39
 4.872062e+01 8.793838e+01 4.467797e+01 5.986338e+01 4.655360e+01 5.547995e+01 5.233105e+01 5.238747e+01 4.623670e+01 4.285939e+01 4.554256e+01 4.065517e+01 8.178990e-02 2.131718e+00 2.467501e+00 2.295796e+00 3.263000e+00 2.705515e+00 3.277761e+00 3.157426e+00 3.330884e+00 3.002590e+00 2.830695e+00 2.829966e+00 2.573833e+00 3.754082e-03 3.006853e-01 3.204699e-01 3.548017e-01 5.152389e-01 4.554175e-01 5.507924e-01 5.410464e-01 5.677052e-01 5.208370e-01 4.984413e-01 4.887287e-01 4.422380e-01 3.730629e-04
<GCONST> 1.056898e+02
<STATE> 12
<MEAN> 39
 -5.443890e-09 -1.903262e-09 -1.656958e-09 -3.481850e-09 1.383784e-08 1.372588e-08 1.325846e-08 4.623808e-09 5.217178e-09 1.175544e-10 4.136796e-09 -1.043156e-08 7.100832e-01 1.332749e-02 -2.589554e-02 -1.775302e-03 1.820766e-02 1.440493e-02 -1.096843e-02 -1.403559e-02 -2.681339e-02 -6.095383e-03 2.780388e-03 -1.148309e-03 -4.305872e-03 1.331587e-03 -9.053766e-03 -3.783373e-03 4.780938e-03 2.122159e-03 6.131099e-03 8.621849e-03 7.099923e-03 9.842545e-03 9.067066e-03 1.861111e-03 4.151787e-04 1.593729e-04 -1.564158e-03
<VARIANCE> 39
 4.872062e+01 8.793838e+01 4.467797e+01 5.986338e+01 4.655360e+01 5.547995e+01 5.233105e+01 5.238747e+01 4.623670e+01 4.285939e+01 4.554256e+01 4.065517e+01 8.178990e-02 2.131718e+00 2.467501e+00 2.295796e+00 3.263000e+00 2.705515e+00 3.277761e+00 3.157426e+00 3.330884e+00 3.002590e+00 2.830695e+00 2.829966e+00 2.573833e+00 3.754082e-03 3.006853e-01 3.204699e-01 3.548017e-01 5.152389e-01 4.554175e-01 5.507924e-01 5.410464e-01 5.677052e-01 5.208370e-01 4.984413e-01 4.887287e-01 4.422380e-01 3.730629e-04
<GCONST> 1.056898e+02
<STATE> 13
<MEAN> 39
 -5.443890e-09 -1.903262e-09 -1.656958e-09 -3.481850e-09 1.383784e-08 1.372588e-08 1.325846e-08 4.623808e-09 5.217178e-09 1.175544e-10 4.136796e-09 -1.043156e-08 7.100832e-01 1.332749e-02 -2.589554e-02 -1.775302e-03 1.820766e-02 1.440493e-02 -1.096843e-02 -1.403559e-02 -2.681339e-02 -6.095383e-03 2.780388e-03 -1.148309e-03 -4.305872e-03 1.331587e-03 -9.053766e-03 -3.783373e-03 4.780938e-03 2.122159e-03 6.131099e-03 8.621849e-03 7.099923e-03 9.842545e-03 9.067066e-03 1.861111e-03 4.151787e-04 1.593729e-04 -1.564158e-03
<VARIANCE> 39
 4.872062e+01 8.793838e+01 4.467797e+01 5.986338e+01 4.655360e+01 5.547995e+01 5.233105e+01 5.238747e+01 4.623670e+01 4.285939e+01 4.554256e+01 4.065517e+01 8.178990e-02 2.131718e+00 2.467501e+00 2.295796e+00 3.263000e+00 2.705515e+00 3.277761e+00 3.157426e+00 3.330884e+00 3.002590e+00 2.830695e+00 2.829966e+00 2.573833e+00 3.754082e-03 3.006853e-01 3.204699e-01 3.548017e-01 5.152389e-01 4.554175e-01 5.507924e-01 5.410464e-01 5.677052e-01 5.208370e-01 4.984413e-01 4.887287e-01 4.422380e-01 3.730629e-04
<GCONST> 1.056898e+02
<STATE> 14
<MEAN> 39
 -5.443890e-09 -1.903262e-09 -1.656958e-09 -3.481850e-09 1.383784e-08 1.372588e-08 1.325846e-08 4.623808e-09 5.217178e-09 1.175544e-10 4.136796e-09 -1.043156e-08 7.100832e-01 1.332749e-02 -2.589554e-02 -1.775302e-03 1.820766e-02 1.440493e-02 -1.096843e-02 -1.403559e-02 -2.681339e-02 -6.095383e-03 2.780388e-03 -1.148309e-03 -4.305872e-03 1.331587e-03 -9.053766e-03 -3.783373e-03 4.780938e-03 2.122159e-03 6.131099e-03 8.621849e-03 7.099923e-03 9.842545e-03 9.067066e-03 1.861111e-03 4.151787e-04 1.593729e-04 -1.564158e-03
<VARIANCE> 39
 4.872062e+01 8.793838e+01 4.467797e+01 5.986338e+01 4.655360e+01 5.547995e+01 5.233105e+01 5.238747e+01 4.623670e+01 4.285939e+01 4.554256e+01 4.065517e+01 8.178990e-02 2.131718e+00 2.467501e+00 2.295796e+00 3.263000e+00 2.705515e+00 3.277761e+00 3.157426e+00 3.330884e+00 3.002590e+00 2.830695e+00 2.829966e+00 2.573833e+00 3.754082e-03 3.006853e-01 3.204699e-01 3.548017e-01 5.152389e-01 4.554175e-01 5.507924e-01 5.410464e-01 5.677052e-01 5.208370e-01 4.984413e-01 4.887287e-01 4.422380e-01 3.730629e-04
<GCONST> 1.056898e+02
<TRANSP> 15
 0.000000e+00 1.000000e+00 0.000000e+00 0.000000e+00 0.000000e+00 0.000000e+00 0.000000e+00 0.000000e+00 0.000000e+00 0.000000e+00 0.000000e+00 0.000000e+00 0.000000e+00 0.000000e+00 0.000000e+00
 0.000000e+00 5.000000e-01 5.000000e-01 0.000000e+00 0.000000e+00 0.000000e+00 0.000000e+00 0.000000e+00 0.000000e+00 0.000000e+00 0.000000e+00 0.000000e+00 0.000000e+00 0.000000e+00 0.000000e+00
 0.000000e+00 0.000000e+00 5.000000e-01 5.000000e-01 0.000000e+00 0.000000e+00 0.000000e+00 0.000000e+00 0.000000e+00 0.000000e+00 0.000000e+00 0.000000e+00 0.000000e+00 0.000000e+00 0.000000e+00
 0.000000e+00 0.000000e+00 0.000000e+00 5.000000e-01 5.000000e-01 0.000000e+00 0.000000e+00 0.000000e+00 0.000000e+00 0.000000e+00 0.000000e+00 0.000000e+00 0.000000e+00 0.000000e+00 0.000000e+00
 0.000000e+00 0.000000e+00 0.000000e+00 0.000000e+00 5.000000e-01 5.000000e-01 0.000000e+00 0.000000e+00 0.000000e+00 0.000000e+00 0.000000e+00 0.000000e+00 0.000000e+00 0.000000e+00 0.000000e+00
 0.000000e+00 0.000000e+00 0.000000e+00 0.000000e+00 0.000000e+00 5.000000e-01 5.000000e-01 0.000000e+00 0.000000e+00 0.000000e+00 0.000000e+00 0.000000e+00 0.000000e+00 0.000000e+00 0.000000e+00
 0.000000e+00 0.000000e+00 0.000000e+00 0.000000e+00 0.000000e+00 0.000000e+00 5.000000e-01 5.000000e-01 0.000000e+00 0.000000e+00 0.000000e+00 0.000000e+00 0.000000e+00 0.000000e+00 0.000000e+00
 0.000000e+00 0.000000e+00 0.000000e+00 0.000000e+00 0.000000e+00 0.000000e+00 0.000000e+00 5.000000e-01 5.000000e-01 0.000000e+00 0.000000e+00 0.000000e+00 0.000000e+00 0.000000e+00 0.000000e+00
 0.000000e+00 0.000000e+00 0.000000e+00 0.000000e+00 0.000000e+00 0.000000e+00 0.000000e+00 0.000000e+00 5.000000e-01 5.000000e-01 0.000000e+00 0.000000e+00 0.000000e+00 0.000000e+00 0.000000e+00
 0.000000e+00 0.000000e+00 0.000000e+00 0.000000e+00 0.000000e+00 0.000000e+00 0.000000e+00 0.000000e+00 0.000000e+00 5.000000e-01 5.000000e-01 0.000000e+00 0.000000e+00 0.000000e+00 0.000000e+00
 0.000000e+00 0.000000e+00 0.000000e+00 0.000000e+00 0.000000e+00 0.000000e+00 0.000000e+00 0.000000e+00 0.000000e+00 0.000000e+00 5.000000e-01 5.000000e-01 0.000000e+00 0.000000e+00 0.000000e+00
 0.000000e+00 0.000000e+00 0.000000e+00 0.000000e+00 0.000000e+00 0.000000e+00 0.000000e+00 0.000000e+00 0.000000e+00 0.000000e+00 0.000000e+00 5.000000e-01 5.000000e-01 0.000000e+00 0.000000e+00
 0.000000e+00 0.000000e+00 0.000000e+00 0.000000e+00 0.000000e+00 0.000000e+00 0.000000e+00 0.000000e+00 0.000000e+00 0.000000e+00 0.000000e+00 0.000000e+00 5.000000e-01 5.000000e-01 0.000000e+00
 0.000000e+00 0.000000e+00 0.000000e+00 0.000000e+00 0.000000e+00 0.000000e+00 0.000000e+00 0.000000e+00 0.000000e+00 0.000000e+00 0.000000e+00 0.000000e+00 0.000000e+00 5.000000e-01 5.000000e-01
 0.000000e+00 0.000000e+00 0.000000e+00 0.000000e+00 0.000000e+00 0.000000e+00 0.000000e+00 0.000000e+00 0.000000e+00 0.000000e+00 0.000000e+00 0.000000e+00 0.000000e+00 0.000000e+00 0.000000e+00
<ENDHMM>
