~o
<STREAMINFO> 1 39
<VECSIZE> 39<NULLD><MFCC_E_D_A_Z><DIAGC>
~s "silst"
<NUMMIXES> 6
<MIXTURE> 1 2.734370e-01
<MEAN> 39
 -4.319575e+00 -9.961604e-01 3.332355e+00 5.756428e+00 3.253294e+00 6.123141e+00 3.158657e+00 4.072286e+00 2.585408e+00 3.405405e+00 2.866382e+00 1.458987e+00 2.740598e-01 -3.026670e+00 -1.269277e+00 -1.757732e+00 6.317776e-01 6.373550e-01 1.685106e+00 1.986497e+00 2.587643e+00 1.824111e+00 1.637790e+00 1.067286e+00 3.806586e-01 -1.004284e-01 3.864117e-01 6.099851e-01 -1.352060e-01 -4.508011e-01 -3.551880e-01 -5.742536e-01 -3.779015e-01 -3.452166e-01 -1.596793e-01 -3.527624e-01 -2.525735e-01 -1.817068e-01 3.821217e-02
<VARIANCE> 39
 2.139613e+01 3.946081e+01 2.282715e+01 2.672416e+01 2.433403e+01 2.985966e+01 3.233221e+01 3.826886e+01 3.182360e+01 3.306172e+01 3.102081e+01 2.778550e+01 2.479378e-02 2.012645e+00 2.661366e+00 2.965419e+00 2.710965e+00 2.937410e+00 3.531725e+00 3.810395e+00 3.511220e+00 3.345452e+00 3.284630e+00 3.305096e+00 3.536438e+00 2.393647e-03 3.509359e-01 5.180653e-01 3.923567e-01 5.451387e-01 4.623930e-01 5.281060e-01 5.733384e-01 6.644590e-01 6.579705e-01 6.667926e-01 5.221839e-01 5.436561e-01 3.530992e-04
<GCONST> 1.004213e+02
<MIXTURE> 2 1.074044e-01
<MEAN> 39
 1.117465e+00 2.789274e+00 5.396957e+00 4.220296e+00 2.630296e+00 2.027874e+00 2.500383e-02 -7.434419e-01 8.896366e-01 -6.469980e-01 -7.624617e-01 6.062993e-01 3.931001e-01 2.626212e+00 2.424486e+00 -2.665271e-01 -1.381853e+00 -1.626207e+00 -1.789348e+00 -1.817574e+00 -1.372572e+00 -1.165876e+00 -6.392298e-01 -5.382796e-01 -5.355124e-01 1.915824e-01 -2.437403e-01 -2.519868e-01 -5.125250e-01 -5.747855e-01 -2.171083e-01 -7.982709e-02 8.171799e-03 2.422006e-01 1.977039e-01 2.145676e-01 2.335956e-01 1.188760e-01 -4.599455e-03
<VARIANCE> 39
 2.471163e+01 4.157267e+01 3.716665e+01 2.686386e+01 3.511591e+01 3.682124e+01 4.510268e+01 4.608615e+01 3.567408e+01 3.782635e+01 4.305808e+01 3.064291e+01 3.413695e-02 2.623340e+00 3.292710e+00 5.461659e+00 3.756533e+00 3.853336e+00 4.049568e+00 4.633813e+00 4.074916e+00 4.327553e+00 3.665938e+00 4.425097e+00 3.463957e+00 2.806726e-03 3.753415e-01 3.059453e-01 4.476867e-01 4.844193e-01 4.480064e-01 5.359368e-01 6.767458e-01 6.368713e-01 6.485323e-01 6.534443e-01 6.239130e-01 5.006078e-01 4.881384e-04
<GCONST> 1.062103e+02
<MIXTURE> 3 1.574972e-01
<MEAN> 39
 -2.954063e+00 -3.738814e+00 1.780675e+00 3.259356e+00 4.028505e+00 4.549856e+00 3.947509e+00 4.276058e+00 3.929698e+00 3.048619e+00 2.395891e+00 1.570334e+00 1.271799e-01 -7.789969e-01 -1.030621e-02 -2.676323e-01 4.769412e-02 -1.827979e-01 -7.751329e-02 -1.228191e-01 -5.207433e-02 -3.928699e-03 1.128301e-01 7.832846e-02 -2.706025e-02 -1.240638e-02 4.159918e-01 4.818964e-01 5.033629e-02 -2.905955e-03 -1.629110e-01 -2.016789e-01 -2.775693e-01 -3.171722e-01 -2.938807e-01 -1.682163e-01 -1.627311e-01 -3.466852e-02 3.584148e-02
<VARIANCE> 39
 1.779515e+01 4.647514e+01 4.194165e+01 3.886391e+01 4.286857e+01 4.472514e+01 4.008990e+01 4.584290e+01 4.210843e+01 3.736316e+01 3.803051e+01 2.655405e+01 2.928324e-02 2.584249e+00 3.298525e+00 2.870707e+00 2.775544e+00 2.929840e+00 3.017923e+00 3.220067e+00 3.472752e+00 3.332506e+00 2.862927e+00 2.949961e+00 2.382003e+00 7.229183e-03 3.821906e-01 5.853598e-01 5.324588e-01 5.823506e-01 7.148423e-01 7.030554e-01 6.803865e-01 7.026418e-01 7.174885e-01 6.769177e-01 6.676998e-01 5.217737e-01 8.897294e-04
<GCONST> 1.068065e+02
<MIXTURE> 4 7.034154e-02
<MEAN> 39
 4.710686e+00 5.750650e+00 2.257272e+00 -2.600120e+00 -2.584633e+00 -1.480189e+00 -2.312344e+00 3.317430e+00 5.204603e+00 7.315942e+00 7.532782e+00 6.613473e+00 5.143951e-01 2.084189e+00 1.324302e+00 -2.208527e+00 -2.806885e+00 -2.381540e+00 -2.869875e+00 -1.810299e+00 -1.792928e+00 -1.381683e+00 -5.860302e-01 -1.552006e-01 4.928173e-01 1.753189e-01 -7.059600e-01 -3.897814e-01 3.835021e-02 4.099294e-01 6.697448e-01 6.062557e-01 5.312808e-01 2.048938e-01 -3.372813e-01 -6.811826e-01 -7.869782e-01 -7.119339e-01 -2.252745e-02
<VARIANCE> 39
 3.241387e+01 5.295485e+01 5.819569e+01 4.435155e+01 2.964300e+01 4.155608e+01 4.922953e+01 4.392883e+01 4.895182e+01 3.637505e+01 4.461376e+01 3.902863e+01 3.187337e-02 3.791319e+00 4.119730e+00 4.409819e+00 3.262300e+00 3.902992e+00 4.699185e+00 4.609555e+00 3.559644e+00 4.133143e+00 5.117682e+00 4.873788e+00 5.029022e+00 4.713577e-03 3.582036e-01 3.550508e-01 6.695824e-01 6.655254e-01 4.810543e-01 5.922553e-01 8.383976e-01 7.723431e-01 7.987454e-01 6.526814e-01 6.099653e-01 7.093357e-01 4.180907e-04
<GCONST> 1.114632e+02
<MIXTURE> 5 1.575202e-01
<MEAN> 39
 -2.955082e+00 -3.742257e+00 1.780594e+00 3.260212e+00 4.029778e+00 4.550847e+00 3.949317e+00 4.275839e+00 3.927828e+00 3.046716e+00 2.397359e+00 1.571662e+00 1.272596e-01 -7.777691e-01 -8.961018e-03 -2.672762e-01 4.719713e-02 -1.834141e-01 -7.801403e-02 -1.232412e-01 -5.253382e-02 -3.824276e-03 1.130266e-01 7.817870e-02 -2.714684e-02 -1.233588e-02 4.163154e-01 4.820769e-01 5.010252e-02 -3.290282e-03 -1.632835e-01 -2.019078e-01 -2.777796e-01 -3.171366e-01 -2.938029e-01 -1.679771e-01 -1.629877e-01 -3.491509e-02 3.584663e-02
<VARIANCE> 39
 1.779787e+01 4.649205e+01 4.196755e+01 3.888092e+01 4.289005e+01 4.478730e+01 4.011731e+01 4.587728e+01 4.214022e+01 3.742134e+01 3.808549e+01 2.657594e+01 2.929170e-02 2.586292e+00 3.300370e+00 2.871925e+00 2.776700e+00 2.931319e+00 3.019894e+00 3.221796e+00 3.474517e+00 3.334470e+00 2.864807e+00 2.952080e+00 2.383386e+00 7.234742e-03 3.824876e-01 5.857427e-01 5.329143e-01 5.829881e-01 7.157444e-01 7.043329e-01 6.810387e-01 7.032306e-01 7.183398e-01 6.782134e-01 6.689271e-01 5.223139e-01 8.903724e-04
<GCONST> 1.068389e+02
<MIXTURE> 6 2.337908e-01
<MEAN> 39
 -1.902693e+00 -1.274593e-01 2.010993e+00 2.456924e+00 2.690233e+00 3.703130e+00 1.442838e+00 2.853541e+00 3.337002e+00 9.537146e-01 1.637012e+00 8.027776e-01 -2.944928e-02 -9.442985e-02 1.733209e-01 7.036604e-02 6.518663e-02 -3.509396e-02 6.963076e-02 7.277115e-02 9.354863e-02 -1.076881e-02 -2.282397e-02 -3.735837e-02 -3.350731e-02 -7.390893e-03 5.366180e-02 5.220056e-02 5.862818e-02 7.326211e-02 4.260659e-02 2.756988e-02 7.966195e-03 2.601201e-02 5.541308e-03 3.895861e-02 1.801631e-02 2.194613e-02 1.130777e-02
<VARIANCE> 39
 8.468760e+00 3.828594e+01 1.725230e+01 2.092033e+01 1.845409e+01 2.308179e+01 2.361992e+01 3.080329e+01 1.854040e+01 2.471704e+01 2.322545e+01 1.680385e+01 1.412103e-02 4.403049e-01 7.614205e-01 7.379787e-01 1.027782e+00 1.228036e+00 1.414146e+00 1.430145e+00 1.652694e+00 1.562779e+00 1.734977e+00 1.476829e+00 1.363062e+00 8.676385e-04 1.063331e-01 1.648526e-01 1.477492e-01 1.856554e-01 2.400179e-01 2.963858e-01 2.993620e-01 3.319907e-01 3.334436e-01 3.270198e-01 2.935209e-01 2.688867e-01 2.641655e-04
<GCONST> 7.292968e+01
~h "#i"
<BEGINHMM>
<NUMSTATES> 15
<STATE> 2
<NUMMIXES> 6
<MIXTURE> 1 7.511771e-02
<MEAN> 39
 -3.382695e+00 9.323188e+00 -6.570518e+00 -4.141864e+00 -6.150013e+00 -4.957256e+00 9.458210e-01 -1.526160e-01 5.182707e+00 7.691064e+00 8.897470e+00 1.094020e+01 8.764781e-01 -8.594314e-01 -3.013414e-01 -2.667529e-01 -1.511263e-01 -5.115942e-01 -4.066659e-01 -1.018310e+00 -5.038351e-01 9.265584e-01 1.833171e+00 2.234280e+00 1.920679e+00 2.887555e-02 3.444445e-01 1.104140e-02 2.301176e-01 1.991632e-01 1.259282e-01 1.738669e-01 2.005417e-01 2.993759e-01 -3.685565e-02 -3.668275e-01 -6.171066e-01 -7.113552e-01 -1.321101e-02
<VARIANCE> 39
 1.872477e+01 3.237415e+01 2.297754e+01 1.812598e+01 2.199932e+01 1.421585e+01 2.331147e+01 3.206284e+01 6.386642e+01 7.056238e+01 5.531369e+01 7.741158e+01 6.204273e-03 7.826306e-01 7.454726e-01 8.737229e-01 1.182831e+00 1.256990e+00 1.493331e+00 2.103834e+00 1.729099e+00 3.121209e+00 3.638432e+00 4.532861e+00 4.751142e+00 3.296252e-04 1.310623e-01 1.754127e-01 2.325659e-01 2.616979e-01 2.598450e-01 3.452339e-01 3.983709e-01 3.175756e-01 5.318817e-01 7.630140e-01 6.025896e-01 5.274246e-01 1.979149e-04
<GCONST> 8.544215e+01
<MIXTURE> 2 1.136556e-01
<MEAN> 39
 -1.382857e-01 9.673439e+00 -3.546265e+00 -4.709877e+00 -4.562609e+00 -6.844621e+00 5.571942e-01 1.417402e+00 5.659003e-01 4.414237e-01 -1.096213e+00 -2.373675e+00 7.071864e-01 -5.823225e-03 1.575795e+00 -5.477060e-01 1.101698e+00 -8.606814e-01 -1.536795e-01 -6.697227e-01 -5.584105e-01 -8.647260e-01 8.757182e-02 -4.165370e-01 7.289912e-01 3.309719e-03 1.007342e-01 -3.145761e-01 2.846650e-01 -3.658380e-03 -6.681245e-02 4.087288e-01 -2.422235e-01 -1.004116e-01 -6.179066e-02 -1.263290e-01 6.446852e-02 2.947952e-01 6.931888e-03
<VARIANCE> 39
 1.311129e+01 2.970399e+01 2.248259e+01 4.143648e+01 2.988956e+01 3.147122e+01 5.589821e+01 4.810401e+01 6.551614e+01 7.884406e+01 7.826030e+01 5.868474e+01 1.927565e-02 8.140839e-01 2.106404e+00 1.888542e+00 2.732790e+00 2.226471e+00 4.701910e+00 3.946945e+00 4.742674e+00 5.465755e+00 5.553956e+00 4.964429e+00 6.277855e+00 1.354097e-03 1.651516e-01 4.303800e-01 2.683893e-01 5.774762e-01 5.213131e-01 7.683679e-01 6.872888e-01 7.574535e-01 9.292012e-01 1.017203e+00 9.414076e-01 1.066142e+00 1.182104e-04
<GCONST> 1.047896e+02
<MIXTURE> 3 2.568873e-01
<MEAN> 39
 -9.187959e-01 1.209020e+01 1.489738e+00 -5.201663e+00 -2.955659e+00 -6.323508e+00 -6.805390e+00 3.916377e-01 9.691958e-01 -2.048939e+00 3.680516e+00 -6.910081e-01 8.078954e-01 -4.884191e-01 1.989372e+00 -8.484425e-01 1.273049e+00 -3.827953e-01 -6.793480e-01 -1.047991e+00 -5.273554e-01 -7.169212e-01 -1.033979e+00 7.625599e-01 -6.946340e-01 3.323383e-03 1.758386e-01 -5.744396e-01 4.324052e-02 1.352866e-01 -4.319095e-01 4.594851e-01 3.004150e-01 3.737973e-02 -2.169110e-01 2.058442e-01 -4.280655e-01 -1.238199e-01 2.366074e-03
<VARIANCE> 39
 1.022014e+01 2.994610e+01 2.189194e+01 3.422423e+01 2.050231e+01 2.801248e+01 3.304731e+01 2.582129e+01 2.944793e+01 3.085644e+01 2.433181e+01 2.588537e+01 6.842675e-03 5.457874e-01 1.746091e+00 1.427209e+00 1.933661e+00 2.026624e+00 3.323198e+00 2.180242e+00 2.438393e+00 2.129469e+00 3.026623e+00 2.893680e+00 2.090172e+00 2.933521e-04 7.924381e-02 2.359430e-01 2.666771e-01 5.828400e-01 3.684085e-01 4.164369e-01 3.261397e-01 4.172114e-01 4.229354e-01 3.634542e-01 3.530218e-01 4.094036e-01 2.794565e-05
<GCONST> 8.146695e+01
<MIXTURE> 4 1.848859e-01
<MEAN> 39
 6.083164e-01 1.161278e+01 -3.011120e+00 -3.185106e+00 -6.339966e+00 -4.668164e+00 -2.165346e+00 1.140399e+00 -9.078813e-01 -1.938582e-01 -5.566034e-01 1.512242e+00 7.927082e-01 -1.012560e+00 4.367130e-01 -6.315207e-01 -5.412713e-01 -6.484817e-01 -7.766382e-01 -1.109017e+00 -1.066376e+00 -1.263866e+00 -1.155481e+00 -4.682898e-01 -1.186624e-01 6.710023e-02 -2.741365e-01 -9.268861e-01 4.287822e-01 5.981078e-01 7.247462e-01 6.784073e-01 3.153411e-01 1.952572e-01 3.376565e-01 2.781301e-01 2.380309e-01 9.243670e-02 -4.031843e-02
<VARIANCE> 39
 1.330390e+01 4.866010e+01 2.075473e+01 1.744996e+01 2.173582e+01 2.894632e+01 4.506844e+01 2.686651e+01 2.762760e+01 3.380153e+01 3.287220e+01 5.265681e+01 1.011849e-02 1.014453e+00 1.653083e+00 1.090955e+00 1.680498e+00 1.686306e+00 1.684924e+00 1.757751e+00 2.864428e+00 2.474051e+00 2.285570e+00 5.451871e+00 5.553295e+00 1.006266e-03 1.857844e-01 3.982762e-01 3.102596e-01 2.279152e-01 3.086944e-01 4.206313e-01 5.480947e-01 3.937447e-01 3.494029e-01 3.865708e-01 4.985043e-01 6.867770e-01 3.318264e-04
<GCONST> 8.940074e+01
<MIXTURE> 5 1.149117e-01
<MEAN> 39
 3.546793e-02 1.012701e+01 -3.513594e+00 -4.427504e+00 -4.787933e+00 -6.919064e+00 -6.140909e-01 5.056945e-01 -1.355051e+00 -1.033864e+00 -2.821987e+00 -2.669890e+00 7.161861e-01 9.093145e-02 1.470966e+00 -3.997586e-01 1.062802e+00 -8.805520e-01 7.096334e-02 -5.549667e-01 -5.230053e-01 -8.201057e-01 1.388188e-01 -5.136902e-01 8.012189e-01 2.727306e-03 7.335124e-02 -2.777791e-01 2.811989e-01 -6.509420e-02 1.121684e-02 3.626082e-01 -1.428683e-01 8.876604e-03 1.110203e-01 -4.390599e-03 2.050353e-01 2.703669e-01 6.167491e-03
<VARIANCE> 39
 1.365162e+01 2.811506e+01 2.039143e+01 4.027554e+01 2.785897e+01 3.062019e+01 4.722773e+01 4.067210e+01 4.812851e+01 5.436314e+01 7.093192e+01 5.410974e+01 1.853761e-02 7.632378e-01 1.860904e+00 1.616276e+00 2.495446e+00 1.974160e+00 4.126644e+00 3.570388e+00 3.889932e+00 4.319733e+00 4.524440e+00 4.689137e+00 5.629839e+00 1.253758e-03 1.593694e-01 3.856365e-01 2.415925e-01 4.893084e-01 4.606474e-01 7.339195e-01 5.506299e-01 5.800615e-01 6.803674e-01 8.175723e-01 7.862903e-01 7.381099e-01 9.705144e-05
<GCONST> 9.929911e+01
<MIXTURE> 6 2.545395e-01
<MEAN> 39
 2.960153e+00 1.334495e+01 -1.808418e+00 -6.777910e-01 -3.717389e+00 -3.073867e+00 1.262800e+00 2.294802e+00 1.895206e-01 2.888265e+00 -1.033314e+00 4.461154e+00 6.951380e-01 -1.054810e-01 5.340696e-01 -3.009841e-01 -1.248778e-01 -6.662579e-01 -4.181513e-01 -6.405231e-01 -4.231589e-01 -6.268247e-01 -5.699549e-01 -7.475444e-01 5.665096e-02 2.560827e-02 -2.567548e-01 -3.000735e-01 -1.601091e-01 -2.020107e-01 -7.463739e-02 -2.948847e-01 -2.866566e-01 -2.633950e-01 -2.242234e-01 -3.816606e-01 -1.631968e-01 -3.358601e-01 6.497254e-03
<VARIANCE> 39
 9.244551e+00 2.438115e+01 1.988312e+01 1.755505e+01 1.467978e+01 1.530610e+01 2.870861e+01 2.710078e+01 2.744941e+01 2.961682e+01 2.773198e+01 3.265128e+01 1.230353e-02 7.062932e-01 1.212508e+00 8.081419e-01 1.045536e+00 1.037986e+00 1.281410e+00 1.786701e+00 1.617273e+00 1.909768e+00 2.152243e+00 2.553554e+00 1.958518e+00 9.032135e-04 8.381659e-02 2.224247e-01 1.369761e-01 1.988849e-01 2.412252e-01 2.395096e-01 2.616908e-01 2.899512e-01 3.185593e-01 2.879997e-01 4.153246e-01 4.006206e-01 1.236675e-04
<GCONST> 7.497430e+01
<STATE> 3
<NUMMIXES> 6
<MIXTURE> 1 8.846862e-02
<MEAN> 39
 -4.026541e+00 9.692713e+00 -7.930186e+00 -5.561755e+00 -1.006790e+01 -1.047358e+01 -5.329581e+00 -4.768595e+00 -3.036865e+00 5.360627e-02 1.231804e-01 6.767324e+00 8.992902e-01 -9.124814e-02 -7.386303e-03 8.404241e-02 3.234326e-01 7.493201e-02 1.398559e-01 -2.541943e-01 -3.692911e-01 -9.296159e-02 -1.915906e-01 2.813522e-01 4.165311e-01 1.273039e-02 3.982758e-01 3.150062e-01 4.715344e-01 4.593909e-01 6.083083e-01 6.182072e-01 5.927419e-01 6.493415e-01 4.834759e-01 3.445458e-01 2.010406e-01 -3.943633e-03 -5.566252e-03
<VARIANCE> 39
 1.723728e+01 2.692944e+01 1.626453e+01 1.392133e+01 1.844418e+01 1.793003e+01 3.070613e+01 1.940643e+01 7.139700e+01 6.018441e+01 1.147094e+02 1.417313e+02 5.353079e-03 3.758470e-01 4.922836e-01 6.197544e-01 1.062150e+00 1.078030e+00 9.558126e-01 1.063996e+00 1.174479e+00 8.526504e-01 1.615174e+00 1.948098e+00 2.979647e+00 1.296763e-04 6.600457e-02 8.963959e-02 1.306204e-01 1.918352e-01 1.892203e-01 2.042048e-01 2.258716e-01 2.396989e-01 2.965837e-01 4.906478e-01 6.072981e-01 7.312155e-01 4.344200e-05
<GCONST> 7.176922e+01
<MIXTURE> 2 1.027316e-01
<MEAN> 39
 -1.660043e+00 1.074978e+01 -4.860971e+00 -2.005217e+00 -6.939411e+00 -6.398715e+00 -3.330122e+00 -3.698341e+00 -5.166671e+00 -3.224851e+00 -5.550550e+00 2.432846e+00 8.486084e-01 -5.842888e-02 6.366734e-02 1.158052e-01 5.854922e-01 -8.599523e-02 2.850043e-02 -5.157391e-01 -4.202763e-01 -4.062260e-01 -3.779409e-01 -2.833591e-01 2.439528e-01 1.917356e-02 2.433960e-01 9.614341e-02 2.602341e-01 9.489258e-02 3.055114e-01 1.835473e-01 3.431495e-01 4.994108e-01 5.517370e-01 4.609479e-01 4.187752e-01 1.008539e-01 -4.794860e-03
<VARIANCE> 39
 1.011760e+01 3.162065e+01 1.203529e+01 1.616115e+01 1.751125e+01 2.240372e+01 2.066217e+01 2.522422e+01 1.633411e+01 2.319321e+01 3.025828e+01 2.524521e+01 9.427104e-03 4.078102e-01 4.448082e-01 5.622895e-01 8.571482e-01 9.376651e-01 8.834767e-01 1.242071e+00 1.296521e+00 1.294771e+00 1.344466e+00 1.896329e+00 1.483369e+00 1.734661e-04 7.093322e-02 9.638677e-02 1.028316e-01 1.612355e-01 1.628028e-01 2.084205e-01 1.990425e-01 2.050705e-01 2.098784e-01 2.197064e-01 3.308091e-01 3.042249e-01 5.428523e-05
<GCONST> 6.277443e+01
<MIXTURE> 3 3.543937e-01
<MEAN> 39
 -1.573613e+00 1.524082e+01 9.142419e-01 -2.159614e+00 -5.550279e+00 -4.435614e+00 -1.018630e+01 3.287919e-01 -1.409476e+00 -3.507685e+00 4.815636e+00 -3.445079e+00 8.302978e-01 -2.568260e-01 5.429882e-01 -1.695092e-01 2.742549e-01 -2.230334e-01 1.225919e-01 -2.404784e-01 -7.905216e-02 -3.327754e-01 -4.106670e-01 1.131720e-01 -2.637020e-01 1.381808e-02 1.002293e-01 -2.224294e-01 2.607789e-02 -1.551671e-01 8.454109e-02 -1.560919e-02 1.511791e-01 1.871123e-02 7.115038e-02 9.125867e-02 -1.315467e-01 1.266147e-01 -2.015970e-03
<VARIANCE> 39
 8.013688e+00 2.725268e+01 1.335132e+01 1.629246e+01 1.491013e+01 1.928340e+01 1.888814e+01 2.220741e+01 2.471527e+01 3.420282e+01 1.710367e+01 1.334487e+01 5.093428e-03 3.735582e-01 4.900273e-01 4.418580e-01 7.185084e-01 6.036482e-01 7.546737e-01 9.099703e-01 9.710798e-01 1.130655e+00 7.516444e-01 9.174035e-01 9.877337e-01 1.930061e-04 6.378039e-02 7.739662e-02 8.946000e-02 1.406988e-01 1.072958e-01 1.331971e-01 1.459038e-01 1.687746e-01 1.676978e-01 1.818960e-01 1.274558e-01 1.405726e-01 2.254807e-05
<GCONST> 5.261706e+01
<MIXTURE> 4 1.576287e-01
<MEAN> 39
 -1.008584e+00 1.238791e+01 -4.157235e+00 -1.264541e+00 -6.574591e+00 -6.454194e+00 -1.717500e+00 -1.278156e+00 -3.053686e+00 -5.903659e-01 -5.826762e+00 4.021712e+00 8.445548e-01 -8.650815e-01 -7.468728e-01 -9.462870e-01 -4.786856e-01 -1.011852e+00 -1.303203e+00 -1.625098e+00 -1.555655e+00 -1.389540e+00 -1.425326e+00 -1.218351e+00 -7.518613e-01 2.638820e-02 1.651954e-01 -4.969071e-02 1.429101e-01 3.893862e-02 1.434075e-01 1.260885e-01 1.441733e-01 1.066465e-01 1.792597e-01 1.654069e-01 2.448641e-01 6.377873e-02 -6.414228e-03
<VARIANCE> 39
 1.336402e+01 2.606991e+01 1.518459e+01 1.353482e+01 1.195765e+01 1.421847e+01 1.905670e+01 2.524364e+01 1.831463e+01 2.093627e+01 1.634948e+01 1.982949e+01 5.815474e-03 3.594309e-01 4.286373e-01 5.512124e-01 7.854114e-01 8.901169e-01 9.451556e-01 8.273382e-01 1.312449e+00 9.764009e-01 1.275402e+00 1.684434e+00 2.033528e+00 2.292651e-04 7.364072e-02 7.649735e-02 9.698354e-02 1.290521e-01 1.791859e-01 1.822166e-01 2.301617e-01 2.193989e-01 2.225944e-01 2.520507e-01 2.086452e-01 2.351087e-01 3.265317e-05
<GCONST> 5.883080e+01
<MIXTURE> 5 1.027050e-01
<MEAN> 39
 -1.663527e+00 1.074071e+01 -4.853914e+00 -2.003965e+00 -6.926065e+00 -6.386145e+00 -3.325338e+00 -3.690390e+00 -5.161408e+00 -3.215296e+00 -5.532570e+00 2.441287e+00 8.488281e-01 -5.902607e-02 6.329948e-02 1.164438e-01 5.861598e-01 -8.415594e-02 2.850091e-02 -5.155774e-01 -4.210747e-01 -4.067928e-01 -3.781618e-01 -2.824804e-01 2.449969e-01 1.920123e-02 2.439407e-01 9.577430e-02 2.598369e-01 9.481698e-02 3.045222e-01 1.830224e-01 3.426419e-01 4.991639e-01 5.518762e-01 4.607406e-01 4.178970e-01 1.002818e-01 -4.817414e-03
<VARIANCE> 39
 1.012253e+01 3.166102e+01 1.204864e+01 1.616530e+01 1.751810e+01 2.246364e+01 2.065769e+01 2.522155e+01 1.633205e+01 2.318321e+01 3.030284e+01 2.529560e+01 9.408261e-03 4.078964e-01 4.443378e-01 5.617268e-01 8.562833e-01 9.366685e-01 8.832995e-01 1.240408e+00 1.295484e+00 1.294148e+00 1.342987e+00 1.895137e+00 1.484405e+00 1.733956e-04 7.105426e-02 9.630865e-02 1.028434e-01 1.611430e-01 1.628501e-01 2.087916e-01 1.987192e-01 2.051447e-01 2.098613e-01 2.195695e-01 3.309359e-01 3.045665e-01 5.436179e-05
<GCONST> 6.277647e+01
<MIXTURE> 6 1.940713e-01
<MEAN> 39
 2.383991e-01 1.378083e+01 -1.259321e+00 -2.325168e+00 -6.214964e+00 -5.395986e+00 -8.985991e+00 2.460015e+00 -3.452243e+00 -7.724668e-01 5.140507e-01 -3.183056e+00 7.984245e-01 -4.886406e-01 5.908822e-01 -1.718694e-02 7.886053e-02 -2.260829e-01 -2.197226e-01 -2.970420e-01 -1.977619e-01 -2.617429e-01 -1.144637e-01 -2.212235e-01 -1.629653e-01 2.631803e-02 -1.524270e-03 -3.000113e-01 3.775252e-02 5.565114e-02 1.855681e-01 1.609555e-01 3.466285e-01 -1.550369e-01 1.544426e-01 4.455302e-02 5.386027e-02 2.385697e-01 -6.615696e-03
<VARIANCE> 39
 1.002164e+01 3.391982e+01 1.904354e+01 2.255943e+01 2.546629e+01 3.356997e+01 4.067775e+01 3.307034e+01 3.916348e+01 3.337176e+01 4.283608e+01 3.112908e+01 1.020558e-02 6.271302e-01 1.000049e+00 1.175750e+00 1.204244e+00 1.478086e+00 1.437382e+00 1.743658e+00 2.077844e+00 1.715664e+00 2.024641e+00 1.941142e+00 1.874588e+00 4.614312e-04 9.246698e-02 1.600088e-01 1.973624e-01 3.202634e-01 3.311959e-01 3.205144e-01 3.132923e-01 3.481482e-01 3.416103e-01 3.254229e-01 3.518241e-01 3.386486e-01 1.826680e-04
<GCONST> 7.972272e+01
<STATE> 4
<NUMMIXES> 6
<MIXTURE> 1 2.305683e-01
<MEAN> 39
 -1.199045e+00 1.279382e+01 -2.647660e+00 -2.091164e+00 -6.732625e+00 -5.708672e+00 -5.356382e+00 -1.451422e+00 -2.116558e+00 -2.331646e+00 -5.414275e-01 7.972267e-01 8.736246e-01 1.344724e-01 4.169426e-01 2.518067e-01 5.153307e-01 3.584776e-01 3.241689e-01 3.084714e-01 1.819133e-01 3.793984e-01 2.126667e-01 2.785540e-01 3.333443e-01 1.045489e-02 9.040570e-02 -5.671665e-02 4.985711e-02 -2.697429e-02 1.596558e-01 4.491749e-02 1.323235e-01 1.500201e-01 1.705944e-01 1.688130e-01 6.211194e-02 -2.346109e-02 -3.737742e-03
<VARIANCE> 39
 1.273051e+01 3.718519e+01 2.560996e+01 1.825373e+01 2.629991e+01 3.252616e+01 4.260832e+01 3.303677e+01 4.267323e+01 4.686855e+01 5.999073e+01 6.318612e+01 6.933884e-03 3.594001e-01 6.827617e-01 8.783905e-01 9.500748e-01 1.112717e+00 1.286633e+00 1.507713e+00 1.420586e+00 1.305906e+00 1.421261e+00 1.462509e+00 1.889216e+00 9.715190e-05 5.056198e-02 9.225556e-02 1.345824e-01 1.491707e-01 2.010208e-01 1.873152e-01 2.129458e-01 2.668566e-01 2.638211e-01 2.048418e-01 3.029250e-01 2.642045e-01 2.939772e-05
<GCONST> 6.948486e+01
<MIXTURE> 2 1.080695e-01
<MEAN> 39
 -5.648678e-01 1.232555e+01 -2.732967e+00 -7.299222e-02 -4.463430e+00 -5.933092e+00 -4.925931e+00 -4.400920e-01 -4.786078e+00 -1.606552e-01 -2.747397e+00 2.903025e+00 8.993108e-01 1.273669e-01 2.608797e-01 1.845365e-01 3.171951e-01 2.912930e-01 1.715190e-01 1.956092e-01 2.690352e-01 2.618669e-01 1.420809e-01 7.873005e-02 1.800555e-01 3.957898e-03 -2.074962e-02 -5.259609e-02 -3.296252e-02 -8.645122e-02 -5.035114e-02 -5.013289e-02 -1.144584e-02 -2.377839e-02 6.120798e-02 -4.828290e-03 1.191776e-02 -1.140269e-01 -2.183995e-03
<VARIANCE> 39
 8.353974e+00 2.470755e+01 9.665074e+00 1.453716e+01 1.430795e+01 2.189236e+01 2.191084e+01 3.457794e+01 1.930355e+01 2.381952e+01 4.036518e+01 3.780747e+01 4.560429e-03 9.223167e-02 1.369385e-01 2.285838e-01 3.330909e-01 3.888388e-01 4.147291e-01 4.088449e-01 4.655866e-01 4.057905e-01 5.021155e-01 5.115057e-01 4.984825e-01 4.397442e-05 1.578655e-02 3.021574e-02 4.792500e-02 5.269440e-02 7.765330e-02 6.693706e-02 7.513478e-02 7.863343e-02 8.870587e-02 8.636825e-02 1.005740e-01 8.785587e-02 4.558477e-06
<GCONST> 3.306128e+01
<MIXTURE> 3 3.337144e-01
<MEAN> 39
 -2.466231e+00 1.397415e+01 -3.579930e-01 -2.164405e+00 -3.662034e+00 -4.887591e+00 -6.674973e+00 5.425369e-02 -1.157906e+00 -2.727228e+00 3.601534e+00 -7.622799e-01 8.898618e-01 -3.818463e-05 2.584005e-02 -2.671349e-02 -8.773786e-02 7.792021e-02 -2.851797e-02 5.388008e-02 -3.530114e-02 1.765518e-02 4.156745e-04 -4.296878e-03 -2.070909e-03 3.463711e-04 1.670495e-02 -2.996033e-02 8.871676e-03 -2.956629e-02 3.551587e-03 -1.437517e-02 5.463740e-03 7.557954e-03 1.029209e-02 1.475497e-02 -1.108281e-02 7.587034e-03 -9.991036e-04
<VARIANCE> 39
 7.930935e+00 4.196231e+01 8.375630e+00 8.271532e+00 8.476748e+00 1.444478e+01 2.506474e+01 1.377665e+01 1.970745e+01 2.837056e+01 2.498147e+01 2.753401e+01 6.596515e-03 5.355354e-02 7.707718e-02 9.673085e-02 1.218478e-01 1.375661e-01 1.518348e-01 1.746781e-01 1.917470e-01 1.912290e-01 2.115242e-01 1.438407e-01 1.674794e-01 3.754082e-05 7.288426e-03 1.524695e-02 1.594116e-02 1.918130e-02 2.494940e-02 2.438173e-02 2.929534e-02 3.081535e-02 3.419691e-02 3.286682e-02 2.481491e-02 3.266038e-02 3.730628e-06
<GCONST> 7.873991e+00
<MIXTURE> 4 8.545010e-02
<MEAN> 39
 -1.330323e+00 1.148687e+01 -2.526546e+00 1.067235e-01 -3.906275e+00 -5.197971e+00 -2.557880e+00 4.224208e-01 -2.585143e+00 -4.464087e-01 -2.058359e+00 5.621180e+00 9.103906e-01 -9.550442e-02 -3.393209e-01 -3.516760e-01 -2.498913e-01 -3.276214e-01 -4.579536e-01 -4.085359e-01 -3.255324e-01 -2.571154e-01 -2.335700e-01 -2.541157e-01 -3.372446e-01 3.943568e-03 -6.309351e-02 -1.012792e-01 -1.564925e-01 -1.725942e-01 -1.844744e-01 -1.244233e-01 -1.005554e-01 -2.189834e-01 -1.318445e-01 -7.260723e-02 -9.292763e-02 -1.856522e-01 -2.197188e-03
<VARIANCE> 39
 1.046597e+01 2.058471e+01 7.918797e+00 1.142948e+01 1.465185e+01 3.039818e+01 1.726668e+01 2.444883e+01 2.001052e+01 2.500297e+01 4.638861e+01 4.636704e+01 4.457893e-03 8.766062e-02 1.170693e-01 1.810023e-01 2.725723e-01 3.073695e-01 3.273628e-01 3.183641e-01 3.633232e-01 2.995554e-01 3.890386e-01 5.012158e-01 6.027721e-01 4.011043e-05 1.624880e-02 2.749256e-02 3.860174e-02 6.135159e-02 6.604789e-02 5.566257e-02 6.945106e-02 8.323681e-02 7.361225e-02 7.093198e-02 1.101695e-01 7.749587e-02 4.044083e-06
<GCONST> 2.970864e+01
<MIXTURE> 5 1.080575e-01
<MEAN> 39
 -5.663536e-01 1.232148e+01 -2.735335e+00 -7.192230e-02 -4.463716e+00 -5.931901e+00 -4.923275e+00 -4.455399e-01 -4.783882e+00 -1.631900e-01 -2.747298e+00 2.907317e+00 8.993560e-01 1.275414e-01 2.609287e-01 1.847828e-01 3.174300e-01 2.915279e-01 1.718304e-01 1.958653e-01 2.692736e-01 2.620752e-01 1.424395e-01 7.910011e-02 1.800339e-01 3.958149e-03 -2.077375e-02 -5.249613e-02 -3.290025e-02 -8.644258e-02 -5.035189e-02 -5.013059e-02 -1.132877e-02 -2.367401e-02 6.118795e-02 -4.798764e-03 1.180318e-02 -1.139234e-01 -2.184549e-03
<VARIANCE> 39
 8.362088e+00 2.470732e+01 9.662146e+00 1.453662e+01 1.430288e+01 2.188993e+01 2.190591e+01 3.456739e+01 1.929931e+01 2.380095e+01 4.036307e+01 3.783114e+01 4.560060e-03 9.224671e-02 1.368865e-01 2.285665e-01 3.330145e-01 3.888236e-01 4.147751e-01 4.086998e-01 4.653176e-01 4.054477e-01 5.019829e-01 5.112643e-01 4.983052e-01 4.397963e-05 1.578603e-02 3.020694e-02 4.791215e-02 5.268133e-02 7.761894e-02 6.692489e-02 7.509707e-02 7.860199e-02 8.864178e-02 8.633082e-02 1.004820e-01 8.781753e-02 4.558596e-06
<GCONST> 3.305236e+01
<MIXTURE> 6 1.341358e-01
<MEAN> 39
 -1.068153e+00 1.267749e+01 -5.790446e+00 -2.346459e+00 -7.095015e+00 -9.344710e+00 -4.767095e+00 -1.802778e+00 -5.365507e+00 -2.855919e+00 -6.238876e+00 1.201307e+00 8.476012e-01 -5.716593e-02 -9.056132e-02 -1.762841e-01 -1.425024e-01 -1.007924e-01 -1.479261e-01 -6.809260e-02 -2.236901e-01 -1.243394e-02 -1.302324e-01 -9.956082e-02 -1.119237e-01 1.263434e-03 2.410311e-02 3.719734e-02 8.545391e-02 2.319508e-02 1.024910e-01 9.325992e-02 1.054848e-01 9.959732e-02 1.135217e-01 8.696624e-02 9.724455e-02 3.173633e-02 -1.184207e-03
<VARIANCE> 39
 8.635641e+00 1.193573e+01 8.566961e+00 1.432540e+01 1.879690e+01 1.934467e+01 2.379188e+01 2.015556e+01 2.777661e+01 2.223009e+01 1.939072e+01 2.810025e+01 8.554080e-03 5.684667e-02 1.132602e-01 1.539760e-01 2.426453e-01 2.530861e-01 3.274946e-01 3.250171e-01 3.382112e-01 4.003597e-01 2.333199e-01 3.240181e-01 3.294720e-01 3.754082e-05 1.370112e-02 1.794186e-02 3.298825e-02 3.508536e-02 5.698865e-02 6.548122e-02 6.010529e-02 6.359537e-02 7.137948e-02 4.951916e-02 6.396785e-02 5.842163e-02 3.730628e-06
<GCONST> 2.336375e+01
<STATE> 5
<NUMMIXES> 6
<MIXTURE> 1 1.624449e-01
<MEAN> 39
 -9.782169e-01 1.237264e+01 -6.600767e+00 -2.928536e+00 -9.534571e+00 -8.658487e+00 -5.394306e+00 -4.287087e+00 -4.727100e+00 -5.071750e+00 -6.954751e+00 1.066390e-01 8.728980e-01 1.334717e-01 2.306884e-01 1.227532e-01 2.401845e-01 2.635156e-01 3.507112e-01 3.390123e-01 2.936622e-01 3.769454e-01 2.152517e-01 2.454512e-01 3.403679e-02 -5.634938e-04 1.302367e-01 1.885380e-01 2.914267e-01 2.831358e-01 3.837509e-01 3.386426e-01 4.066233e-01 3.484278e-01 3.412981e-01 3.291785e-01 2.643814e-01 1.901009e-01 -9.499395e-04
<VARIANCE> 39
 1.847047e+01 2.141450e+01 1.639003e+01 1.404511e+01 1.421537e+01 2.268796e+01 1.916295e+01 2.839515e+01 2.036865e+01 2.987756e+01 2.394890e+01 3.955733e+01 6.161479e-03 1.388314e-01 2.487592e-01 3.321129e-01 5.507706e-01 5.277789e-01 6.455723e-01 6.413954e-01 5.929775e-01 6.364802e-01 6.817114e-01 5.083621e-01 5.145383e-01 3.754082e-05 1.584753e-02 4.039024e-02 4.308924e-02 7.210233e-02 7.330788e-02 8.728293e-02 9.661858e-02 9.957887e-02 1.153018e-01 1.014427e-01 9.645326e-02 1.260196e-01 3.730628e-06
<GCONST> 3.969221e+01
<MIXTURE> 2 1.357660e-01
<MEAN> 39
 6.598383e-01 1.458285e+01 -4.260209e+00 5.390189e-01 -5.773045e+00 -4.961512e+00 -1.293852e+00 -1.085518e+00 -6.694833e-01 -2.775185e-01 -2.106540e+00 4.237999e+00 8.742426e-01 2.717920e-01 3.613596e-01 3.644877e-01 5.193560e-01 4.623503e-01 4.558681e-01 5.821913e-01 3.693001e-01 4.918666e-01 5.487505e-01 4.063039e-01 2.472341e-01 1.159790e-03 -1.081481e-01 -1.984319e-01 -1.769308e-01 -2.720544e-01 -1.909108e-01 -2.728341e-01 -1.816540e-01 -2.292785e-01 -2.111603e-01 -1.349647e-01 -1.580362e-01 -2.189777e-01 -1.119285e-03
<VARIANCE> 39
 1.649122e+01 2.504565e+01 1.734261e+01 1.324311e+01 1.468819e+01 1.910933e+01 1.561966e+01 2.444791e+01 2.696678e+01 3.737578e+01 5.084958e+01 4.951603e+01 7.119135e-03 1.642997e-01 3.744597e-01 4.159552e-01 5.034440e-01 8.165904e-01 9.207171e-01 8.558789e-01 8.569086e-01 8.258135e-01 8.046287e-01 8.305982e-01 1.076115e+00 4.655852e-05 2.658666e-02 5.601730e-02 8.228000e-02 9.202770e-02 1.150942e-01 1.461306e-01 1.598397e-01 1.444774e-01 1.314755e-01 1.633201e-01 1.401144e-01 1.455171e-01 4.250059e-06
<GCONST> 4.973013e+01
<MIXTURE> 3 2.994094e-01
<MEAN> 39
 -1.393075e+00 1.680585e+01 7.118676e-01 -1.428577e+00 -6.628646e+00 -3.438455e+00 -1.152956e+01 3.141395e-01 -4.501675e-01 -4.974782e+00 4.687122e+00 -4.618174e+00 8.634656e-01 1.963471e-02 2.668329e-02 3.927993e-02 -4.123590e-02 1.301505e-01 -6.306670e-02 7.010987e-02 6.319860e-02 1.048714e-01 5.396084e-02 2.211957e-02 -9.174432e-02 -2.424275e-04 6.210909e-04 -6.849979e-02 1.556541e-02 -5.995857e-02 3.979298e-02 -7.174571e-02 6.144799e-02 -3.644636e-02 2.260398e-02 3.312612e-02 -1.784982e-02 5.361165e-02 -1.113546e-03
<VARIANCE> 39
 1.032719e+01 2.811337e+01 1.286013e+01 1.658842e+01 2.379204e+01 2.327885e+01 2.578078e+01 2.852953e+01 2.364785e+01 3.029808e+01 2.129459e+01 1.606358e+01 4.353280e-03 9.946428e-02 1.797452e-01 2.973226e-01 3.346416e-01 3.493678e-01 5.294073e-01 5.722977e-01 5.999907e-01 6.008528e-01 5.079527e-01 4.927379e-01 4.723332e-01 3.754082e-05 1.768863e-02 3.196475e-02 4.753359e-02 6.443986e-02 7.182729e-02 1.025554e-01 9.618143e-02 1.071673e-01 1.392559e-01 9.453753e-02 9.170217e-02 7.940060e-02 3.730628e-06
<GCONST> 3.617438e+01
<MIXTURE> 4 1.669460e-01
<MEAN> 39
 -6.397725e-03 1.352731e+01 -4.741365e+00 -1.550353e-01 -6.651754e+00 -6.539932e+00 -2.219735e+00 -2.513909e+00 -2.429426e+00 -2.070720e+00 -5.053296e+00 2.622205e+00 8.748137e-01 -2.257608e-01 -4.387101e-01 -6.139435e-01 -5.359129e-01 -6.261402e-01 -7.497751e-01 -5.899838e-01 -6.627405e-01 -4.309664e-01 -5.230861e-01 -4.297509e-01 -5.586185e-01 -2.335067e-04 -4.518141e-02 -3.514541e-02 -4.736996e-02 -1.249808e-01 -4.957908e-02 -6.969552e-02 -6.691689e-02 -1.803013e-02 -8.729012e-03 -1.080764e-01 -2.772466e-02 -9.231080e-02 -1.035239e-03
<VARIANCE> 39
 1.816720e+01 2.984444e+01 1.169263e+01 1.244429e+01 1.553875e+01 1.919499e+01 1.568370e+01 2.296260e+01 1.941487e+01 2.533333e+01 2.358509e+01 3.385950e+01 6.372525e-03 8.553344e-02 2.038228e-01 2.635414e-01 3.823180e-01 4.412923e-01 4.250739e-01 6.117340e-01 4.924451e-01 6.715308e-01 6.027321e-01 6.144262e-01 5.742606e-01 3.754082e-05 1.806800e-02 4.719631e-02 5.347909e-02 6.503753e-02 9.167176e-02 1.077362e-01 1.292995e-01 1.267820e-01 9.886459e-02 1.028208e-01 8.148250e-02 1.062812e-01 3.730628e-06
<GCONST> 3.771514e+01
<MIXTURE> 5 1.358999e-01
<MEAN> 39
 6.713355e-01 1.460175e+01 -4.276308e+00 5.356843e-01 -5.772027e+00 -4.975378e+00 -1.302182e+00 -1.091461e+00 -6.898119e-01 -3.159239e-01 -2.163067e+00 4.204776e+00 8.738629e-01 2.705724e-01 3.581971e-01 3.624051e-01 5.156465e-01 4.633889e-01 4.541109e-01 5.807934e-01 3.694515e-01 4.923510e-01 5.455409e-01 4.034770e-01 2.444984e-01 1.073661e-03 -1.073050e-01 -1.967500e-01 -1.752557e-01 -2.694366e-01 -1.903596e-01 -2.707613e-01 -1.800417e-01 -2.284370e-01 -2.099421e-01 -1.338460e-01 -1.572946e-01 -2.179053e-01 -1.106860e-03
<VARIANCE> 39
 1.644325e+01 2.500952e+01 1.726451e+01 1.322188e+01 1.462304e+01 1.911168e+01 1.556438e+01 2.439447e+01 2.655276e+01 3.691439e+01 5.019508e+01 4.929404e+01 7.174491e-03 1.620786e-01 3.677509e-01 4.112937e-01 4.979884e-01 8.051812e-01 9.098931e-01 8.461939e-01 8.519550e-01 8.160561e-01 7.956455e-01 8.160012e-01 1.052304e+00 4.558848e-05 2.632346e-02 5.537238e-02 8.146386e-02 9.105854e-02 1.143195e-01 1.451929e-01 1.588167e-01 1.437110e-01 1.306826e-01 1.619121e-01 1.388882e-01 1.435355e-01 4.188084e-06
<GCONST> 4.937187e+01
<MIXTURE> 6 9.953283e-02
<MEAN> 39
 -3.287176e-02 1.246155e+01 -4.487606e+00 -1.609145e+00 -7.013214e+00 -7.079676e+00 -4.776128e+00 -3.041432e+00 -1.847654e+00 -2.393641e+00 -8.215151e-01 1.380629e+00 8.889717e-01 -9.818365e-02 -1.174152e-01 -3.319609e-01 -2.014743e-01 -1.849938e-01 -8.923845e-02 -2.809579e-01 -5.005754e-01 -1.502523e-02 -9.927802e-02 -1.495909e-01 -2.108689e-01 5.534390e-03 4.038266e-02 -1.977312e-02 4.707013e-02 -5.239858e-02 1.494299e-01 1.359249e-01 5.154489e-02 1.021337e-01 1.209234e-01 4.216508e-02 5.645804e-02 3.295448e-02 -3.121002e-03
<VARIANCE> 39
 1.447975e+01 3.989808e+01 3.682491e+01 2.549139e+01 3.353873e+01 4.271334e+01 3.421489e+01 3.051045e+01 3.171006e+01 4.700330e+01 7.460523e+01 8.238770e+01 7.241315e-03 2.528312e-01 4.589841e-01 6.354289e-01 9.191287e-01 1.198603e+00 1.281471e+00 1.087212e+00 9.284669e-01 1.069023e+00 1.120443e+00 1.440355e+00 1.390829e+00 8.194212e-05 4.681405e-02 1.013542e-01 1.701699e-01 2.141343e-01 1.912565e-01 2.218857e-01 2.807941e-01 2.445734e-01 2.383092e-01 2.935143e-01 3.151712e-01 2.701008e-01 2.020348e-05
<GCONST> 6.897987e+01
<STATE> 6
<NUMMIXES> 6
<MIXTURE> 1 1.648682e-01
<MEAN> 39
 -1.836916e+00 -2.926535e-01 -3.478445e+00 -2.712044e+00 -3.455845e+00 -3.487993e+00 -3.646156e+00 -4.039605e+00 -3.237629e+00 -3.370795e+00 -3.146302e+00 -1.639482e+00 9.654725e-01 1.307538e-01 -1.352281e-02 2.775198e-03 2.028140e-02 1.449553e-02 -1.129368e-01 3.579341e-02 2.661775e-02 -5.951864e-02 -7.432877e-02 -7.825812e-03 -1.277579e-02 -2.431748e-03 1.158086e-01 2.208142e-01 2.825377e-01 2.330183e-01 2.800608e-01 2.606322e-01 3.024127e-01 3.527457e-01 2.624960e-01 2.714929e-01 1.938641e-01 1.849896e-01 -8.779081e-04
<VARIANCE> 39
 4.374465e+00 3.110919e+00 6.580359e+00 7.924975e+00 1.037475e+01 6.778320e+00 8.674189e+00 8.150646e+00 9.678749e+00 9.526164e+00 1.677760e+01 1.330087e+01 1.125021e-03 1.516307e-01 2.907715e-01 4.900303e-01 4.643967e-01 8.878719e-01 6.430305e-01 7.341226e-01 8.660389e-01 7.169504e-01 6.124008e-01 7.974188e-01 6.073306e-01 3.754082e-05 2.194669e-02 4.496308e-02 7.523073e-02 7.320032e-02 1.329300e-01 8.996657e-02 1.041633e-01 1.366480e-01 1.120940e-01 8.780896e-02 1.326999e-01 9.606806e-02 3.730628e-06
<GCONST> 3.025851e+01
<MIXTURE> 2 1.533575e-01
<MEAN> 39
 -6.109654e-01 2.115032e+00 -6.455158e-01 -1.306843e-02 -3.022358e-01 -5.860170e-01 -3.808133e-01 -5.180732e-01 -5.051001e-01 -5.301556e-01 -8.996564e-01 2.328735e-01 9.606168e-01 2.357685e-01 1.220389e-01 2.184263e-01 2.318540e-01 2.289622e-01 1.820965e-01 2.656271e-01 1.537112e-01 2.832392e-01 2.287743e-01 1.624954e-01 8.007468e-02 -3.574965e-03 -1.845587e-02 -6.468266e-02 -9.550942e-02 -9.697808e-02 -1.293301e-01 -1.045953e-01 -1.194640e-01 -9.310961e-02 -7.368136e-02 -4.793378e-02 -2.959075e-02 -5.034824e-02 -8.615770e-04
<VARIANCE> 39
 4.294556e+00 4.655360e+00 5.859802e+00 6.429587e+00 7.491323e+00 7.815356e+00 1.187315e+01 8.575233e+00 8.089994e+00 9.603704e+00 1.565561e+01 9.381516e+00 1.157102e-03 1.566369e-01 2.819908e-01 4.191274e-01 5.309125e-01 6.474816e-01 6.455531e-01 8.252171e-01 7.723384e-01 7.003440e-01 6.529671e-01 6.717324e-01 5.125536e-01 3.754082e-05 2.357166e-02 3.962762e-02 6.491266e-02 7.845718e-02 1.078559e-01 1.015422e-01 1.127963e-01 1.217117e-01 1.028779e-01 9.478536e-02 1.260263e-01 8.273742e-02 3.730628e-06
<GCONST> 2.884016e+01
<MIXTURE> 3 2.639983e-01
<MEAN> 39
 -1.044257e+00 1.528611e+01 -7.860562e-01 -1.643131e+00 -4.789724e+00 -5.123657e+00 -8.152102e+00 -8.444853e-02 -1.265778e+00 -3.178028e+00 2.152403e+00 -3.034281e+00 8.697172e-01 4.731118e-02 -1.194002e-01 4.858367e-02 -9.752932e-02 2.509331e-01 -1.705288e-01 1.006432e-01 -1.309102e-01 3.665247e-01 1.631877e-01 9.028278e-02 -5.488843e-02 -3.247228e-03 2.877750e-02 -1.191736e-01 6.498588e-02 -1.236213e-01 1.238953e-01 -3.978212e-02 7.983309e-02 3.446240e-03 4.545204e-02 4.458147e-02 -4.011668e-02 5.964710e-02 -2.283325e-03
<VARIANCE> 39
 1.120749e+01 2.524350e+01 1.760051e+01 2.100716e+01 1.743767e+01 2.447321e+01 2.734618e+01 1.893500e+01 2.733460e+01 3.475065e+01 3.709656e+01 2.066627e+01 4.676039e-03 2.397164e-01 3.072777e-01 4.202940e-01 6.878158e-01 5.534850e-01 6.312722e-01 7.366413e-01 7.701340e-01 7.757343e-01 8.715832e-01 7.001078e-01 6.819370e-01 7.032020e-05 5.186091e-02 6.304309e-02 9.212258e-02 1.142583e-01 1.100049e-01 1.386954e-01 1.304898e-01 1.290709e-01 1.592363e-01 1.535179e-01 1.289865e-01 1.314919e-01 7.044805e-06
<GCONST> 4.931811e+01
<MIXTURE> 4 1.116654e-01
<MEAN> 39
 -5.872846e-01 4.840986e+00 -1.624426e+00 -1.834753e-01 -1.671945e+00 -1.913928e+00 -6.748191e-01 -1.191034e+00 -1.207299e+00 1.217537e-04 -1.822519e+00 1.215220e+00 9.579973e-01 -2.772511e-01 -5.972902e-01 -7.587526e-01 -8.106911e-01 -7.139749e-01 -8.351980e-01 -7.441721e-01 -9.470985e-01 -5.709967e-01 -6.701552e-01 -4.962500e-01 -5.945760e-01 -9.128128e-04 -8.078653e-02 -1.692150e-01 -1.499315e-01 -2.319575e-01 -1.744462e-01 -2.708973e-01 -1.744902e-01 -1.491139e-01 -1.892846e-01 -2.130472e-01 -1.496140e-01 -1.648339e-01 -1.190264e-03
<VARIANCE> 39
 4.589375e+00 3.726339e+01 1.113959e+01 9.606708e+00 1.511247e+01 1.894990e+01 9.060589e+00 1.052814e+01 1.364255e+01 1.016786e+01 1.850943e+01 1.709186e+01 1.755096e-03 1.511096e-01 2.864334e-01 2.703069e-01 4.645441e-01 5.128627e-01 6.241966e-01 6.714687e-01 6.549773e-01 7.910445e-01 5.497119e-01 1.345152e+00 7.057643e-01 3.754082e-05 2.433795e-02 6.323051e-02 9.057672e-02 9.099256e-02 1.097708e-01 1.272782e-01 1.131667e-01 1.525049e-01 1.179917e-01 1.319848e-01 1.463094e-01 9.811659e-02 3.730628e-06
<GCONST> 3.729094e+01
<MIXTURE> 5 1.534793e-01
<MEAN> 39
 -6.126397e-01 2.114350e+00 -6.451898e-01 -1.246123e-02 -3.011578e-01 -5.838190e-01 -3.817273e-01 -5.179732e-01 -5.039169e-01 -5.291761e-01 -8.971881e-01 2.330049e-01 9.606529e-01 2.353966e-01 1.219902e-01 2.181275e-01 2.313282e-01 2.287208e-01 1.820024e-01 2.653710e-01 1.537970e-01 2.829742e-01 2.280846e-01 1.620817e-01 7.979169e-02 -3.569828e-03 -1.848006e-02 -6.467824e-02 -9.541791e-02 -9.699000e-02 -1.293425e-01 -1.046510e-01 -1.192738e-01 -9.297590e-02 -7.374845e-02 -4.802822e-02 -2.978326e-02 -5.030982e-02 -8.611483e-04
<VARIANCE> 39
 4.289305e+00 4.649892e+00 5.855162e+00 6.425168e+00 7.482832e+00 7.806179e+00 1.186708e+01 8.567096e+00 8.081557e+00 9.594337e+00 1.564796e+01 9.376770e+00 1.155666e-03 1.564394e-01 2.816528e-01 4.186692e-01 5.305932e-01 6.467574e-01 6.443672e-01 8.237918e-01 7.713055e-01 6.993939e-01 6.521731e-01 6.707492e-01 5.122160e-01 3.754082e-05 2.354033e-02 3.958546e-02 6.482866e-02 7.835479e-02 1.077188e-01 1.013819e-01 1.126486e-01 1.215204e-01 1.026954e-01 9.464538e-02 1.258921e-01 8.264653e-02 3.730628e-06
<GCONST> 2.879723e+01
<MIXTURE> 6 1.526301e-01
<MEAN> 39
 3.113562e-01 1.326082e+01 -4.073754e+00 1.995415e-01 -5.974000e+00 -5.567413e+00 -2.313840e+00 -6.698677e-01 -1.520717e-01 1.805134e+00 2.110346e-01 5.031594e+00 8.917367e-01 -1.111613e-01 -2.496081e-02 3.434877e-02 -2.148878e-01 2.698815e-01 1.641522e-02 1.886158e-01 4.714587e-02 2.057649e-01 1.386071e-01 1.741089e-01 -1.774891e-01 7.295959e-04 -8.991636e-02 -1.906774e-01 -8.993269e-02 -3.972736e-01 2.139710e-02 -2.413553e-01 -1.170997e-01 -1.525025e-01 -6.517389e-02 -2.080555e-01 -4.572332e-02 -2.060520e-01 -2.079573e-03
<VARIANCE> 39
 1.698762e+01 2.668631e+01 2.500881e+01 1.977835e+01 1.934285e+01 2.620333e+01 2.758791e+01 3.662098e+01 4.158607e+01 5.278417e+01 7.171022e+01 7.983080e+01 6.732001e-03 3.523062e-01 5.146293e-01 8.414699e-01 8.180032e-01 1.216366e+00 1.423685e+00 1.223479e+00 1.128694e+00 1.207381e+00 1.585048e+00 1.694018e+00 1.375513e+00 5.172365e-05 6.621753e-02 1.178978e-01 1.879564e-01 1.721250e-01 2.445369e-01 2.987702e-01 3.248135e-01 3.075460e-01 2.591233e-01 3.271039e-01 2.847028e-01 3.235148e-01 1.294368e-05
<GCONST> 6.959413e+01
<STATE> 7
<NUMMIXES> 6
<MIXTURE> 1 7.656664e-02
<MEAN> 39
 -2.780154e+00 1.080309e+01 -3.269493e+00 -3.426326e+00 -6.753600e+00 -4.911066e+00 5.121086e+00 6.996996e+00 1.784417e+01 1.737577e+01 1.185238e+01 5.719049e+00 9.481689e-01 4.097873e-02 1.776569e-01 4.280460e-02 -1.787686e-01 2.810887e-01 -1.290194e-01 4.472859e-02 1.689999e-01 2.450882e-01 -2.023711e-02 1.127532e-01 -3.489581e-01 -1.830487e-03 -1.434275e-01 -7.057699e-02 -4.180747e-02 -1.104398e-01 1.514616e-02 -6.346727e-02 -1.553702e-03 -1.292836e-01 -4.344170e-02 1.155311e-01 5.333558e-02 1.492841e-01 -2.532582e-03
<VARIANCE> 39
 2.210577e+01 1.575384e+01 1.653535e+01 1.725842e+01 1.048328e+01 9.582833e+00 1.664891e+01 2.246717e+01 1.736740e+01 1.032233e+01 1.822297e+01 5.204487e+01 2.384127e-03 6.900042e-01 5.399788e-01 7.868306e-01 5.824056e-01 5.505699e-01 5.964901e-01 3.233903e-01 1.053117e+00 8.698261e-01 7.011837e-01 2.887825e-01 1.150739e+00 6.061100e-05 1.046718e-01 1.294475e-01 1.650000e-01 1.222917e-01 1.198173e-01 1.420822e-01 8.786306e-02 1.505130e-01 1.725862e-01 2.067993e-01 7.416801e-02 1.475099e-01 6.407352e-06
<GCONST> 4.804784e+01
<MIXTURE> 2 1.720167e-01
<MEAN> 39
 -1.933089e-01 1.071124e+01 -1.570133e+00 -9.024613e-01 -4.141252e+00 -4.667042e+00 -4.350773e+00 -1.089198e+00 -1.532348e+00 -1.496666e+00 -7.333724e-01 -1.045279e+00 8.527592e-01 4.619171e-01 -1.154348e-01 -5.253231e-02 1.417216e-01 4.371269e-01 9.140715e-02 -2.401004e-02 6.977694e-02 2.203126e-01 5.376335e-01 8.882996e-02 -1.114847e-01 -1.177861e-02 1.780346e-01 -9.477716e-02 5.788520e-03 2.063455e-02 1.703069e-01 5.596612e-02 8.337525e-02 -2.640376e-02 3.679470e-02 4.074538e-03 -1.887952e-02 3.366431e-02 -3.252254e-03
<VARIANCE> 39
 1.605046e+01 4.007637e+01 1.764875e+01 1.624516e+01 1.557566e+01 2.452423e+01 3.041660e+01 1.719707e+01 2.035699e+01 3.033106e+01 2.930776e+01 2.409551e+01 7.942605e-03 3.550616e-01 4.419118e-01 9.354206e-01 7.610999e-01 1.117622e+00 9.961120e-01 1.340387e+00 1.175369e+00 1.511162e+00 1.610521e+00 1.527594e+00 1.319442e+00 1.074113e-04 6.281144e-02 6.913625e-02 1.367428e-01 1.263445e-01 1.380484e-01 1.635872e-01 3.159343e-01 2.003768e-01 2.124584e-01 2.568084e-01 2.363523e-01 2.449203e-01 1.938990e-05
<GCONST> 6.232227e+01
<MIXTURE> 3 2.443650e-01
<MEAN> 39
 -2.107123e+00 1.668334e+01 2.902043e-01 -3.904927e+00 -5.329675e+00 -5.227414e+00 -1.066965e+01 -7.809018e-01 1.075486e+00 -5.056900e+00 5.915514e+00 -4.951536e+00 8.789272e-01 -1.804346e-01 -5.270991e-01 2.984843e-01 -1.023883e+00 6.198198e-01 -4.681707e-01 3.807079e-01 -5.866618e-02 5.616760e-01 2.399472e-01 -2.094071e-01 4.202983e-01 4.384557e-04 7.555046e-02 -3.162484e-01 2.537602e-01 -2.812807e-01 1.979546e-01 6.444944e-02 2.253623e-01 1.650815e-01 -4.189872e-02 1.731912e-01 -3.174617e-01 2.426495e-01 -3.354856e-03
<VARIANCE> 39
 9.778466e+00 2.345639e+01 1.618757e+01 1.598102e+01 1.696539e+01 2.227951e+01 2.121407e+01 2.636084e+01 2.617227e+01 2.249431e+01 1.499105e+01 1.413253e+01 4.835485e-03 2.179359e-01 3.764172e-01 3.834101e-01 8.545644e-01 5.676823e-01 7.665614e-01 7.371507e-01 9.649218e-01 1.298903e+00 8.821889e-01 1.175132e+00 6.477708e-01 9.950624e-05 4.230336e-02 7.478973e-02 1.259882e-01 1.485948e-01 1.354970e-01 1.744282e-01 1.933829e-01 2.023381e-01 1.308030e-01 1.612837e-01 9.473773e-02 1.229127e-01 1.560473e-05
<GCONST> 5.109108e+01
<MIXTURE> 4 1.937319e-01
<MEAN> 39
 -1.007634e+00 1.289250e+01 -6.695526e+00 -1.879488e+00 -8.386400e+00 -1.012633e+01 -4.954895e+00 -3.465053e+00 -5.172303e+00 -1.900312e+00 -6.926674e+00 5.619635e-01 8.944140e-01 -5.424169e-01 -5.243864e-01 -3.233298e-01 -1.196384e+00 -7.558840e-02 -9.671407e-01 1.655678e-01 -6.755545e-01 1.586955e-01 -7.913639e-01 1.389315e-01 -8.931088e-01 -2.320454e-03 1.395199e-01 -5.050543e-02 4.665776e-01 -1.853920e-01 5.724511e-01 1.796210e-01 3.735092e-01 3.297006e-01 2.496021e-01 1.208888e-01 4.028421e-01 -7.469977e-03 -3.356129e-03
<VARIANCE> 39
 8.376625e+00 2.857016e+01 1.229682e+01 2.344636e+01 1.280009e+01 2.039222e+01 1.840562e+01 3.414412e+01 2.220498e+01 1.821779e+01 2.334903e+01 3.697312e+01 4.034427e-03 3.172389e-01 3.789500e-01 5.678704e-01 7.646952e-01 1.003923e+00 1.253029e+00 1.513250e+00 1.228319e+00 1.289773e+00 1.101737e+00 1.246203e+00 1.005777e+00 4.889798e-05 5.275972e-02 1.044054e-01 1.495568e-01 2.365858e-01 1.449593e-01 2.221671e-01 2.623716e-01 2.296549e-01 2.355552e-01 2.128172e-01 2.105177e-01 1.974748e-01 8.423119e-06
<GCONST> 5.797990e+01
<MIXTURE> 5 1.720870e-01
<MEAN> 39
 -1.773437e-01 1.068882e+01 -1.569765e+00 -8.967820e-01 -4.138382e+00 -4.667931e+00 -4.341079e+00 -1.067965e+00 -1.538218e+00 -1.501301e+00 -7.169431e-01 -1.008017e+00 8.541003e-01 4.620530e-01 -1.129493e-01 -4.855409e-02 1.410135e-01 4.342102e-01 8.738337e-02 -2.342995e-02 7.131346e-02 2.156283e-01 5.370693e-01 8.687039e-02 -1.136369e-01 -1.191515e-02 1.768068e-01 -9.549712e-02 7.264673e-03 1.969919e-02 1.704288e-01 5.601308e-02 8.264813e-02 -2.915436e-02 3.514459e-02 3.269994e-03 -2.238932e-02 3.025389e-02 -3.279013e-03
<VARIANCE> 39
 1.601399e+01 4.012595e+01 1.753477e+01 1.590536e+01 1.546372e+01 2.418831e+01 3.039573e+01 1.707833e+01 2.033702e+01 3.019999e+01 2.926017e+01 2.390502e+01 7.422550e-03 3.550031e-01 4.406947e-01 9.318874e-01 7.543489e-01 1.109290e+00 9.854937e-01 1.338854e+00 1.167620e+00 1.505568e+00 1.613573e+00 1.527070e+00 1.314352e+00 1.019414e-04 6.252705e-02 6.904299e-02 1.367250e-01 1.257196e-01 1.374900e-01 1.621004e-01 3.167726e-01 1.985139e-01 2.118102e-01 2.570599e-01 2.340813e-01 2.435882e-01 1.853795e-05
<GCONST> 6.198956e+01
<MIXTURE> 6 1.412335e-01
<MEAN> 39
 -1.217065e+00 1.285402e+01 -5.288544e+00 -1.047463e+00 -4.771702e+00 -5.245283e+00 1.692113e-01 -2.660233e+00 9.162714e-01 2.081371e+00 3.237501e+00 9.494803e+00 9.091166e-01 -4.425931e-01 -5.756654e-01 7.077698e-02 -1.106788e+00 2.671524e-01 -8.586843e-01 8.650994e-04 -3.694835e-01 -2.116831e-01 -6.075774e-03 1.861112e-01 -3.878585e-01 -2.155959e-03 3.445074e-02 -3.623685e-01 1.575828e-01 -4.282873e-01 3.944253e-02 -2.831144e-01 -3.591304e-01 -4.866046e-02 -2.908230e-01 -2.567608e-01 -3.315187e-01 -5.492602e-01 -5.082792e-03
<VARIANCE> 39
 1.951808e+01 2.928709e+01 2.058061e+01 1.763894e+01 2.349292e+01 2.147824e+01 1.167510e+01 1.506676e+01 1.773226e+01 3.827951e+01 6.709113e+01 9.589268e+01 4.575882e-03 3.762098e-01 5.089269e-01 6.502500e-01 1.006643e+00 1.677513e+00 1.352915e+00 1.435268e+00 1.168793e+00 1.394573e+00 1.630200e+00 1.851636e+00 1.774994e+00 5.774101e-05 8.258267e-02 1.003710e-01 1.772346e-01 2.136485e-01 2.895731e-01 1.952641e-01 2.072713e-01 2.504194e-01 1.619194e-01 3.018894e-01 2.721103e-01 4.023547e-01 1.563388e-05
<GCONST> 6.653413e+01
<STATE> 8
<NUMMIXES> 6
<MIXTURE> 1 3.780605e-02
<MEAN> 39
 8.261658e-01 7.437141e+00 -4.956681e+00 2.608457e-01 -5.491152e+00 -4.445584e+00 -2.897371e+00 -6.896250e+00 7.609362e-01 -7.372485e-01 9.464763e-01 2.870058e+00 8.044792e-01 1.564535e+00 4.339789e-01 4.516666e-01 7.499260e-01 1.455973e+00 1.754490e+00 4.021174e-01 5.869706e-01 1.375633e+00 2.002062e+00 1.897282e+00 9.327523e-01 -8.791025e-03 1.884960e-01 1.710472e-02 2.000562e-01 -6.942213e-03 2.022065e-01 -7.498119e-02 -4.959799e-02 4.623325e-01 1.013900e-01 -7.839032e-02 6.114762e-02 2.055084e-01 -2.151971e-03
<VARIANCE> 39
 1.710200e+01 3.651596e+01 1.204815e+01 1.672805e+01 1.363400e+01 4.426242e+01 4.705583e+01 1.402751e+01 2.633572e+01 5.555910e+01 6.851018e+01 4.652465e+01 1.809642e-02 5.597197e-01 1.947814e-01 7.130181e-01 4.465712e-01 1.056166e+00 1.615762e+00 1.341120e+00 1.496244e+00 7.793605e-01 1.805861e+00 4.225095e+00 2.220129e+00 3.467491e-04 1.064092e-01 7.518199e-02 8.574820e-02 1.473895e-01 2.043665e-01 3.999617e-01 2.134434e-01 1.962041e-01 2.728985e-01 4.236821e-01 5.377938e-01 2.548494e-01 1.874971e-05
<GCONST> 7.023662e+01
<MIXTURE> 2 1.068180e-01
<MEAN> 39
 -1.882141e+00 1.179262e+01 -6.245159e+00 -4.213075e+00 -8.114349e+00 -1.063953e+01 -4.187215e+00 -4.275850e+00 -4.684823e+00 -3.664776e+00 -6.265205e+00 -1.516515e+00 8.815039e-01 3.304305e-02 -3.846283e-01 5.925205e-01 -9.706711e-01 1.121612e+00 -1.941548e-01 7.628440e-01 3.559073e-01 3.689429e-01 -5.764805e-02 9.118591e-01 -5.128354e-01 -1.140314e-02 3.690973e-01 -4.248272e-02 5.826587e-01 1.791053e-01 6.229925e-01 5.991881e-01 2.605914e-01 4.921998e-01 2.557687e-01 3.066925e-01 3.833159e-01 1.871911e-01 -6.796521e-03
<VARIANCE> 39
 1.299455e+01 2.916109e+01 1.456749e+01 2.009509e+01 1.348662e+01 2.504309e+01 2.231511e+01 2.822162e+01 2.040507e+01 2.278349e+01 2.387100e+01 4.219958e+01 5.115709e-03 5.565614e-01 6.785626e-01 9.545522e-01 2.027758e+00 1.195501e+00 1.793827e+00 2.391740e+00 1.342735e+00 2.111589e+00 1.240709e+00 1.547811e+00 1.673623e+00 1.205567e-04 9.141960e-02 1.415630e-01 2.315186e-01 2.626954e-01 2.160067e-01 2.590645e-01 3.741284e-01 3.774180e-01 3.552111e-01 3.705699e-01 2.877968e-01 3.279972e-01 3.334977e-05
<GCONST> 7.116651e+01
<MIXTURE> 3 2.776109e-01
<MEAN> 39
 -2.023092e+00 1.513472e+01 8.194976e-01 -4.439427e+00 -3.783766e+00 -6.060655e+00 -9.447129e+00 -4.436239e-01 1.077074e+00 -4.066069e+00 4.327411e+00 -3.606171e+00 8.689273e-01 1.519254e-01 -8.616650e-01 5.819301e-01 -1.152936e+00 8.105170e-01 -7.474210e-02 7.699717e-01 1.778256e-01 3.854175e-01 3.556232e-01 -5.087863e-01 4.314249e-01 -9.340934e-03 2.485434e-01 -3.207338e-01 2.051105e-01 9.101323e-02 8.155529e-02 4.181500e-01 3.047447e-01 1.756643e-01 -1.405832e-01 1.150245e-01 -3.183511e-01 6.544226e-02 -6.837574e-03
<VARIANCE> 39
 9.399703e+00 2.610096e+01 1.452084e+01 2.022217e+01 1.604725e+01 2.323620e+01 2.597749e+01 2.389301e+01 3.199937e+01 2.470532e+01 2.010149e+01 1.652761e+01 5.471973e-03 5.098089e-01 7.827975e-01 8.812075e-01 1.689727e+00 9.880068e-01 1.191788e+00 1.416385e+00 1.389674e+00 1.361174e+00 1.748936e+00 1.058356e+00 1.525409e+00 1.869102e-04 5.405866e-02 1.228535e-01 1.556906e-01 1.962043e-01 2.065735e-01 1.853836e-01 2.808874e-01 2.630654e-01 2.919923e-01 2.186797e-01 2.276612e-01 1.829047e-01 3.002604e-05
<GCONST> 6.485243e+01
<MIXTURE> 4 1.315204e-01
<MEAN> 39
 -3.348597e+00 1.075166e+01 -5.395421e+00 -2.716716e+00 -5.676241e+00 -5.956492e+00 3.424102e-01 -1.735515e+00 4.343432e+00 6.866861e+00 9.932450e+00 1.255078e+01 9.214892e-01 -2.590160e-01 -7.132171e-01 2.187022e-01 -1.252925e+00 5.415443e-01 -9.098194e-01 -7.519139e-02 -1.686567e-01 -3.652425e-01 -2.666783e-02 -3.883829e-01 -8.805181e-01 -1.014842e-02 3.044960e-01 -2.373166e-01 3.305408e-01 -2.535537e-02 1.175697e-01 1.445120e-01 -2.147770e-01 9.917554e-02 -2.797639e-01 -4.229440e-01 -6.085940e-01 -6.598307e-01 -8.596790e-03
<VARIANCE> 39
 1.766213e+01 1.851155e+01 2.229441e+01 1.637485e+01 4.043635e+01 2.253229e+01 2.559275e+01 2.473358e+01 5.567527e+01 5.910530e+01 7.746352e+01 8.555160e+01 3.860249e-03 9.292895e-01 8.034243e-01 1.438593e+00 1.673259e+00 2.309591e+00 1.568851e+00 1.918307e+00 1.729341e+00 1.221666e+00 1.992314e+00 2.715132e+00 2.327935e+00 1.499177e-04 1.259457e-01 1.892809e-01 3.331454e-01 2.297331e-01 3.591371e-01 2.098942e-01 4.267370e-01 2.773726e-01 3.009228e-01 4.385199e-01 3.465301e-01 5.370204e-01 3.476242e-05
<GCONST> 7.997441e+01
<MIXTURE> 5 1.068486e-01
<MEAN> 39
 -1.875809e+00 1.181907e+01 -6.271864e+00 -4.178339e+00 -8.126923e+00 -1.063031e+01 -4.160096e+00 -4.279693e+00 -4.667311e+00 -3.676292e+00 -6.258541e+00 -1.472316e+00 8.813635e-01 2.805697e-02 -3.863965e-01 5.917472e-01 -9.830062e-01 1.126552e+00 -2.047629e-01 7.738611e-01 3.599548e-01 3.758436e-01 -5.754645e-02 9.144914e-01 -5.200109e-01 -1.136153e-02 3.688342e-01 -4.576743e-02 5.838516e-01 1.729219e-01 6.235055e-01 5.968339e-01 2.601975e-01 4.942660e-01 2.545262e-01 3.083960e-01 3.802854e-01 1.831098e-01 -6.750621e-03
<VARIANCE> 39
 1.294581e+01 2.915105e+01 1.443003e+01 1.993311e+01 1.341770e+01 2.485820e+01 2.223559e+01 2.825499e+01 2.034508e+01 2.281185e+01 2.383611e+01 4.195908e+01 5.112440e-03 5.604236e-01 6.830928e-01 9.571576e-01 2.040148e+00 1.200235e+00 1.789704e+00 2.400433e+00 1.345781e+00 2.117669e+00 1.247148e+00 1.557556e+00 1.669128e+00 1.202998e-04 9.122834e-02 1.420399e-01 2.315968e-01 2.613273e-01 2.165285e-01 2.589021e-01 3.739299e-01 3.762977e-01 3.544842e-01 3.718488e-01 2.869558e-01 3.275469e-01 3.264860e-05
<GCONST> 7.113036e+01
<MIXTURE> 6 3.393957e-01
<MEAN> 39
 4.754321e+00 1.135833e+01 -4.959067e+00 9.753280e-01 -1.672892e+00 -5.283119e+00 -3.023281e+00 -1.016986e+00 9.608368e-01 4.846862e-01 -3.358510e+00 -1.884842e-01 8.110232e-01 5.952371e-01 -4.531740e-01 1.921183e-01 1.679702e-01 4.225631e-01 -2.662866e-01 -2.051495e-01 1.686685e-03 2.318944e-02 -5.109600e-02 -1.260075e-01 3.557009e-02 -9.887536e-03 -1.190358e-01 -9.380151e-02 3.183170e-01 1.202017e-02 -7.741911e-02 -2.830041e-02 -6.127863e-02 -1.512577e-01 -2.292062e-01 -2.095248e-01 6.023556e-02 -2.549652e-02 -2.880474e-03
<VARIANCE> 39
 1.222704e+01 3.693758e+01 2.763865e+01 1.759991e+01 2.350638e+01 2.450553e+01 2.299986e+01 3.191147e+01 3.073887e+01 4.033029e+01 3.756068e+01 2.916716e+01 8.778283e-03 5.080494e-01 6.191584e-01 1.648994e+00 1.359868e+00 1.509863e+00 1.610940e+00 1.811138e+00 1.857758e+00 2.008782e+00 2.327790e+00 2.416221e+00 1.897362e+00 1.237827e-04 8.199439e-02 1.132048e-01 1.953875e-01 2.253113e-01 2.005271e-01 2.660131e-01 2.429915e-01 3.144233e-01 3.146325e-01 3.273319e-01 3.073761e-01 3.057266e-01 1.108237e-05
<GCONST> 7.278577e+01
<STATE> 9
<NUMMIXES> 6
<MIXTURE> 1 1.422914e-01
<MEAN> 39
 -3.832433e+00 1.341120e+01 -4.707086e+00 -6.060974e+00 -2.439010e+00 -1.291497e+01 7.792123e-01 -3.557374e+00 -6.881949e-01 -2.976833e+00 -3.040073e+00 1.900900e-01 8.763250e-01 1.432783e-01 -1.627250e+00 1.668647e+00 -2.733635e+00 2.067871e+00 -9.425934e-02 1.164637e+00 1.735245e+00 4.263096e-01 6.242775e-01 4.234266e-01 -7.426838e-01 -1.120723e-02 4.209814e-01 -5.368950e-01 5.246398e-01 3.214801e-01 -2.639982e-01 1.180435e+00 -3.964229e-01 4.621713e-01 -1.665468e-01 9.680299e-02 9.834749e-02 6.435456e-02 -6.384797e-03
<VARIANCE> 39
 1.423672e+01 2.588581e+01 1.317548e+01 1.881930e+01 1.813643e+01 2.268281e+01 2.806908e+01 3.158269e+01 2.207465e+01 1.929551e+01 2.478745e+01 2.914324e+01 5.459893e-03 6.421341e-01 1.192768e+00 2.009134e+00 1.374734e+00 2.066540e+00 2.455204e+00 2.850194e+00 2.192839e+00 2.783986e+00 2.228221e+00 1.494327e+00 2.085758e+00 2.077151e-04 1.270551e-01 2.009188e-01 1.965819e-01 3.751340e-01 5.408480e-01 2.519650e-01 4.302869e-01 3.591993e-01 3.659255e-01 4.492274e-01 2.878257e-01 3.480419e-01 6.009015e-05
<GCONST> 7.806034e+01
<MIXTURE> 2 1.044152e-01
<MEAN> 39
 -6.645510e-01 1.054342e+01 -3.543053e+00 -5.126965e+00 -4.953544e+00 -8.541675e+00 -4.566532e+00 -1.835139e+00 -4.172465e+00 -2.988042e+00 -4.496580e+00 -3.409798e+00 8.599269e-01 7.753609e-01 -2.551637e-01 1.327685e+00 1.570619e-01 1.540228e+00 9.268882e-01 3.590490e-01 3.770275e-01 2.622824e-01 1.098351e-01 1.081331e+00 -2.735679e-01 -2.364964e-02 2.153042e-01 4.871269e-03 4.632583e-01 6.249303e-01 2.770943e-01 5.824546e-01 1.065715e-01 1.390784e-02 1.775215e-01 1.901412e-01 2.181542e-01 3.837748e-01 -1.058656e-02
<VARIANCE> 39
 1.694950e+01 3.499212e+01 2.112632e+01 2.712322e+01 1.491577e+01 2.318443e+01 3.003934e+01 3.412944e+01 2.413335e+01 2.399298e+01 2.355667e+01 4.238719e+01 5.311498e-03 7.549224e-01 6.374370e-01 1.644366e+00 1.413129e+00 1.452739e+00 1.697650e+00 2.473487e+00 2.326055e+00 2.599216e+00 1.841108e+00 2.319243e+00 2.909094e+00 1.880203e-04 1.032613e-01 1.238796e-01 2.185697e-01 2.413466e-01 2.024649e-01 2.651539e-01 4.457003e-01 4.156729e-01 4.209976e-01 3.400159e-01 3.108674e-01 3.755929e-01 5.452762e-05
<GCONST> 7.706164e+01
<MIXTURE> 3 2.867674e-01
<MEAN> 39
 -1.408598e+00 1.390794e+01 2.294381e+00 -6.205225e+00 -2.836995e+00 -5.423619e+00 -9.191617e+00 1.398523e-01 1.064322e+00 -3.311450e+00 4.469705e+00 -3.193058e+00 8.485332e-01 7.096159e-01 -1.267819e+00 8.496321e-01 -7.327819e-01 6.813523e-01 7.569359e-01 1.229426e+00 4.747104e-01 2.363044e-01 5.362586e-01 -9.606409e-01 5.082371e-01 -2.111319e-02 1.705955e-01 -1.748995e-01 6.235188e-02 6.192567e-01 5.736472e-02 5.409471e-01 3.263385e-01 4.375122e-02 -1.839386e-01 -2.872884e-02 -2.881497e-01 -3.315641e-02 -1.015791e-02
<VARIANCE> 39
 8.391293e+00 2.671985e+01 1.688022e+01 2.905286e+01 1.704906e+01 1.639396e+01 2.086645e+01 2.190405e+01 2.698874e+01 2.432293e+01 1.767496e+01 1.493654e+01 6.792578e-03 5.638775e-01 1.208869e+00 1.643672e+00 1.969028e+00 1.435259e+00 1.317583e+00 2.101740e+00 2.015134e+00 1.866595e+00 1.904522e+00 1.802776e+00 1.915650e+00 2.719652e-04 7.808623e-02 1.837500e-01 1.532979e-01 2.806447e-01 2.674281e-01 2.460770e-01 2.430582e-01 2.702122e-01 2.808670e-01 2.588029e-01 2.903149e-01 2.112241e-01 5.501804e-05
<GCONST> 7.122829e+01
<MIXTURE> 4 1.038509e-01
<MEAN> 39
 -3.673548e+00 9.903027e+00 -5.737610e+00 -6.200211e+00 -4.276924e+00 -8.692092e+00 3.885047e-01 -3.980427e-01 4.601149e+00 8.491548e+00 8.513534e+00 1.093422e+01 8.915960e-01 6.066500e-01 -1.117232e+00 1.165558e+00 -1.086280e+00 1.139688e+00 2.511277e-02 -5.020270e-01 2.084588e-01 -1.327625e+00 -1.235435e+00 -1.785832e+00 -2.252575e+00 -2.344890e-02 4.586633e-01 -1.328419e-01 5.631427e-01 5.620332e-01 4.661273e-02 7.371868e-01 -1.727678e-01 -5.830901e-02 -3.464926e-01 -6.994267e-01 -4.651907e-01 -5.995219e-01 -1.290522e-02
<VARIANCE> 39
 1.851461e+01 2.137780e+01 3.856674e+01 1.053285e+01 3.614597e+01 2.385424e+01 3.301990e+01 4.661669e+01 7.094215e+01 6.779462e+01 3.884647e+01 9.131433e+01 5.081750e-03 1.301791e+00 1.409981e+00 1.888053e+00 2.236007e+00 2.550939e+00 1.881033e+00 2.225145e+00 1.929020e+00 2.974863e+00 5.841277e+00 5.033350e+00 3.963228e+00 3.676726e-04 1.957038e-01 2.871644e-01 3.658506e-01 2.585354e-01 6.583583e-01 3.675083e-01 6.176134e-01 4.786682e-01 5.803572e-01 5.896587e-01 3.013358e-01 6.160243e-01 1.270831e-04
<GCONST> 9.254466e+01
<MIXTURE> 5 1.020947e-01
<MEAN> 39
 -6.171737e-01 1.023182e+01 -3.374956e+00 -4.974864e+00 -4.825742e+00 -8.027122e+00 -4.541966e+00 -1.665992e+00 -3.840622e+00 -2.829701e+00 -4.291985e+00 -3.658005e+00 8.515978e-01 7.320384e-01 -2.496248e-01 1.250753e+00 1.830684e-01 1.511906e+00 9.419826e-01 3.528299e-01 4.518391e-01 3.253425e-01 1.363313e-01 1.090320e+00 -1.797371e-01 -2.173844e-02 1.908922e-01 2.200644e-02 4.498845e-01 6.276737e-01 2.797360e-01 5.512817e-01 1.155104e-01 2.160169e-02 1.920616e-01 1.776368e-01 2.222618e-01 4.009795e-01 -1.024438e-02
<VARIANCE> 39
 1.817539e+01 4.287574e+01 2.266147e+01 3.327772e+01 1.609804e+01 3.309343e+01 3.249246e+01 3.434575e+01 2.781980e+01 2.619791e+01 2.460514e+01 4.181298e+01 7.571419e-03 7.958946e-01 6.437718e-01 1.763031e+00 1.530636e+00 1.492376e+00 1.818816e+00 2.436496e+00 2.307754e+00 2.619156e+00 1.944232e+00 2.411669e+00 3.026897e+00 3.613851e-04 1.131076e-01 1.408975e-01 2.283763e-01 2.479057e-01 2.058511e-01 3.125371e-01 4.543172e-01 4.254009e-01 4.308197e-01 3.524237e-01 3.188218e-01 3.598036e-01 6.354590e-05
<GCONST> 8.052830e+01
<MIXTURE> 6 2.605801e-01
<MEAN> 39
 4.013932e+00 8.852974e+00 -2.151561e+00 1.288455e+00 -2.456109e+00 -5.183184e+00 -2.724858e+00 -1.682067e+00 -1.013235e+00 -2.169912e-01 -5.749137e-01 2.188872e+00 8.123273e-01 2.645749e-01 -4.573194e-01 9.020801e-01 3.096085e-01 3.381025e-01 -9.749702e-02 -1.688337e-01 -4.182221e-01 -1.305034e-01 -8.615152e-03 1.169656e-01 -2.752089e-01 -2.165410e-02 -1.897408e-01 -4.661863e-02 3.356853e-01 1.443011e-01 1.433671e-01 2.068294e-01 1.274107e-02 -5.080431e-02 -1.717349e-02 -5.277874e-02 -1.296040e-01 -2.624300e-01 -7.424788e-03
<VARIANCE> 39
 1.581993e+01 4.008393e+01 1.766332e+01 1.691059e+01 2.750611e+01 2.922075e+01 2.629202e+01 2.209947e+01 2.481158e+01 3.466776e+01 3.600644e+01 2.238017e+01 8.003372e-03 7.212116e-01 7.184079e-01 1.333976e+00 1.688953e+00 1.262867e+00 1.157511e+00 2.487189e+00 2.278957e+00 1.848111e+00 1.760579e+00 2.110691e+00 2.510907e+00 9.014807e-05 8.277846e-02 1.369762e-01 2.267970e-01 2.040016e-01 2.368492e-01 3.851861e-01 3.163125e-01 3.454438e-01 3.229276e-01 4.720415e-01 3.541209e-01 3.124772e-01 3.109713e-05
<GCONST> 7.468484e+01
<STATE> 10
<MEAN> 39
 3.389086e-01 1.049853e+01 -1.782165e-01 -4.896491e+00 -1.810399e+00 -6.553246e+00 -3.562382e+00 -5.954000e-01 -2.299887e-01 -7.132379e-01 3.347247e-01 -6.910104e-01 8.245425e-01 7.634956e-01 -9.716192e-01 1.512368e+00 2.221316e-01 9.498121e-01 1.257474e+00 4.761327e-01 3.786893e-01 -3.508551e-02 1.371859e-02 -3.590555e-01 -3.359690e-01 -3.309711e-02 -1.006254e-01 -1.510998e-01 9.699018e-02 7.270015e-01 -4.496679e-02 5.483465e-01 8.046389e-02 -1.898576e-02 -5.754218e-02 -4.637017e-02 2.531757e-02 9.404881e-02 -1.214368e-02
<VARIANCE> 39
 2.124596e+01 3.531018e+01 2.433874e+01 4.292503e+01 2.420635e+01 2.998593e+01 3.729679e+01 3.178231e+01 3.407072e+01 3.651919e+01 3.464093e+01 4.115055e+01 8.139628e-03 1.025877e+00 1.737868e+00 2.216639e+00 2.618311e+00 2.068451e+00 2.218414e+00 3.267112e+00 2.977712e+00 2.634398e+00 3.023730e+00 3.609629e+00 3.626477e+00 4.756123e-04 1.923507e-01 2.436660e-01 2.412526e-01 4.463309e-01 4.998817e-01 4.091276e-01 4.304040e-01 4.333558e-01 4.216457e-01 4.354135e-01 3.777521e-01 3.943512e-01 1.296434e-04
<GCONST> 9.051810e+01
<STATE> 11
<MEAN> 39
 2.043934e+00 9.773235e+00 1.761745e+00 -3.902831e+00 -7.689457e-01 -4.165335e+00 -3.492433e+00 -8.049800e-02 -2.927383e-01 -8.296001e-01 -3.322394e-01 -1.232705e+00 7.747660e-01 4.272431e-01 -9.956348e-01 1.450589e+00 1.315131e+00 7.453979e-01 1.697886e+00 4.639196e-01 6.231629e-02 -1.697913e-01 -2.040385e-01 -2.369147e-01 -1.443453e-01 -4.534493e-02 -4.252112e-01 -1.959246e-01 -2.492072e-01 5.540324e-01 -7.723437e-02 1.892790e-01 1.201051e-01 -3.798120e-03 6.028012e-02 4.330788e-02 1.626020e-01 1.956148e-01 -1.265426e-02
<VARIANCE> 39
 2.161144e+01 3.740279e+01 2.729571e+01 5.415728e+01 2.703247e+01 2.782594e+01 3.451884e+01 3.624440e+01 3.391833e+01 3.382468e+01 3.352068e+01 3.794065e+01 1.127300e-02 1.196431e+00 2.266770e+00 2.122658e+00 2.625084e+00 3.115841e+00 3.049826e+00 3.438387e+00 2.864183e+00 2.588907e+00 3.276002e+00 3.525107e+00 3.305455e+00 1.006048e-03 2.863537e-01 2.514707e-01 4.137278e-01 6.272295e-01 4.621485e-01 4.841404e-01 4.899899e-01 6.090886e-01 5.010233e-01 5.106183e-01 4.985388e-01 5.184185e-01 2.187285e-04
<GCONST> 9.624921e+01
<STATE> 12
<MEAN> 39
 1.956604e+00 8.595618e+00 3.590411e+00 -1.484083e+00 -5.159328e-01 -1.872142e+00 -2.927825e+00 -7.374914e-01 -6.745251e-01 -1.650750e+00 -6.834424e-01 -1.203655e+00 7.205617e-01 -3.467264e-01 -1.350305e+00 9.151482e-01 1.865178e+00 7.264477e-01 1.774259e+00 7.854624e-01 1.560199e-01 -2.548994e-02 3.950956e-02 1.323938e-01 1.882615e-01 -6.254853e-02 -5.704567e-01 -2.786124e-01 -5.984002e-01 1.207328e-01 -3.904549e-02 -1.305104e-01 2.018673e-01 2.255915e-01 2.630090e-01 2.716436e-01 2.601376e-01 2.217039e-01 -1.112183e-02
<VARIANCE> 39
 2.004193e+01 4.574371e+01 2.775859e+01 5.582991e+01 2.920617e+01 3.067856e+01 3.814196e+01 3.892128e+01 3.725560e+01 3.280499e+01 3.498850e+01 3.525887e+01 1.447065e-02 1.592310e+00 2.558062e+00 1.868629e+00 2.769791e+00 3.628311e+00 3.192619e+00 2.954382e+00 2.835682e+00 2.705662e+00 3.070467e+00 2.968001e+00 2.766984e+00 2.142108e-03 3.536376e-01 3.253236e-01 4.791760e-01 6.706913e-01 4.892792e-01 7.150053e-01 6.184566e-01 7.736608e-01 6.154612e-01 5.922111e-01 5.952458e-01 6.135344e-01 3.177898e-04
<GCONST> 1.004800e+02
<STATE> 13
<MEAN> 39
 8.167081e-01 6.952708e+00 4.211020e+00 9.793811e-01 4.038579e-01 -1.186193e-01 -1.841879e+00 -7.367596e-01 -9.687623e-01 -1.429326e+00 -7.663145e-02 -6.594765e-01 6.538661e-01 -1.117828e+00 -1.814739e+00 -1.796967e-02 1.563218e+00 7.347917e-01 1.299131e+00 1.086209e+00 6.684670e-01 4.611544e-01 5.241739e-01 4.914878e-01 4.739321e-01 -7.603405e-02 -4.024426e-01 -1.795890e-01 -6.651139e-01 -3.226722e-01 -3.882507e-02 -3.375525e-01 1.357405e-01 2.956314e-01 3.390145e-01 3.256781e-01 1.599212e-01 1.043884e-01 -3.193938e-03
<VARIANCE> 39
 1.817016e+01 5.476899e+01 2.750182e+01 5.817529e+01 4.326392e+01 3.675735e+01 4.617639e+01 3.872470e+01 3.986995e+01 3.854021e+01 4.093101e+01 3.524865e+01 2.407032e-02 2.618399e+00 2.271575e+00 2.288568e+00 3.453187e+00 2.992660e+00 4.173438e+00 2.644957e+00 3.800667e+00 3.159365e+00 2.977207e+00 3.094513e+00 2.944796e+00 4.012037e-03 2.408223e-01 4.601882e-01 4.341812e-01 5.918214e-01 7.787318e-01 7.579426e-01 7.894291e-01 7.418612e-01 6.687146e-01 7.044466e-01 6.564690e-01 6.352600e-01 3.501032e-04
<GCONST> 1.051133e+02
<STATE> 14
<MEAN> 39
 -1.024785e+00 4.722161e+00 3.523831e+00 2.133090e+00 1.112485e+00 7.211986e-01 -4.162480e-01 6.075316e-01 -2.661512e-02 -3.447730e-01 9.334725e-01 2.574261e-02 5.497007e-01 -1.380516e+00 -2.026212e+00 -7.397936e-01 8.306214e-01 7.010902e-01 8.348892e-01 1.166926e+00 1.133053e+00 9.377304e-01 9.780287e-01 5.567777e-01 4.536169e-01 -7.479903e-02 -5.510898e-02 8.378618e-02 -4.166183e-01 -4.796861e-01 -5.510394e-02 -2.857021e-01 -1.688333e-02 1.232378e-01 2.082625e-01 1.823623e-01 -2.960824e-02 -6.379851e-02 1.017943e-02
<VARIANCE> 39
 2.216351e+01 5.434480e+01 2.636655e+01 5.465281e+01 4.785213e+01 4.353963e+01 4.575661e+01 3.438927e+01 3.833243e+01 3.724137e+01 4.151909e+01 3.436899e+01 5.047468e-02 2.935764e+00 2.536107e+00 2.867554e+00 3.531348e+00 3.284054e+00 5.198157e+00 3.361098e+00 4.613880e+00 3.887591e+00 3.403167e+00 3.496000e+00 3.704877e+00 5.201092e-03 1.619989e-01 4.598329e-01 3.694256e-01 5.941102e-01 7.483927e-01 6.353215e-01 7.382033e-01 5.714371e-01 5.921726e-01 6.190521e-01 6.095432e-01 4.979657e-01 4.531304e-04
<GCONST> 1.067588e+02
<TRANSP> 15
 0.000000e+00 1.000000e+00 0.000000e+00 0.000000e+00 0.000000e+00 0.000000e+00 0.000000e+00 0.000000e+00 0.000000e+00 0.000000e+00 0.000000e+00 0.000000e+00 0.000000e+00 0.000000e+00 0.000000e+00
 0.000000e+00 6.528246e-01 3.471754e-01 0.000000e+00 0.000000e+00 0.000000e+00 0.000000e+00 0.000000e+00 0.000000e+00 0.000000e+00 0.000000e+00 0.000000e+00 0.000000e+00 0.000000e+00 0.000000e+00
 0.000000e+00 0.000000e+00 6.239101e-01 3.760898e-01 0.000000e+00 0.000000e+00 0.000000e+00 0.000000e+00 0.000000e+00 0.000000e+00 0.000000e+00 0.000000e+00 0.000000e+00 0.000000e+00 0.000000e+00
 0.000000e+00 0.000000e+00 0.000000e+00 7.343959e-01 2.656041e-01 0.000000e+00 0.000000e+00 0.000000e+00 0.000000e+00 0.000000e+00 0.000000e+00 0.000000e+00 0.000000e+00 0.000000e+00 0.000000e+00
 0.000000e+00 0.000000e+00 0.000000e+00 0.000000e+00 7.174941e-01 2.825058e-01 0.000000e+00 0.000000e+00 0.000000e+00 0.000000e+00 0.000000e+00 0.000000e+00 0.000000e+00 0.000000e+00 0.000000e+00
 0.000000e+00 0.000000e+00 0.000000e+00 0.000000e+00 0.000000e+00 6.602022e-01 3.397978e-01 0.000000e+00 0.000000e+00 0.000000e+00 0.000000e+00 0.000000e+00 0.000000e+00 0.000000e+00 0.000000e+00
 0.000000e+00 0.000000e+00 0.000000e+00 0.000000e+00 0.000000e+00 0.000000e+00 2.623259e-01 7.376741e-01 0.000000e+00 0.000000e+00 0.000000e+00 0.000000e+00 0.000000e+00 0.000000e+00 0.000000e+00
 0.000000e+00 0.000000e+00 0.000000e+00 0.000000e+00 0.000000e+00 0.000000e+00 0.000000e+00 3.419423e-01 6.580577e-01 0.000000e+00 0.000000e+00 0.000000e+00 0.000000e+00 0.000000e+00 0.000000e+00
 0.000000e+00 0.000000e+00 0.000000e+00 0.000000e+00 0.000000e+00 0.000000e+00 0.000000e+00 0.000000e+00 1.483360e-01 8.516640e-01 0.000000e+00 0.000000e+00 0.000000e+00 0.000000e+00 0.000000e+00
 0.000000e+00 0.000000e+00 0.000000e+00 0.000000e+00 0.000000e+00 0.000000e+00 0.000000e+00 0.000000e+00 0.000000e+00 1.532763e-04 9.998467e-01 0.000000e+00 0.000000e+00 0.000000e+00 0.000000e+00
 0.000000e+00 0.000000e+00 0.000000e+00 0.000000e+00 0.000000e+00 0.000000e+00 0.000000e+00 0.000000e+00 0.000000e+00 0.000000e+00 1.306056e-01 8.693944e-01 0.000000e+00 0.000000e+00 0.000000e+00
 0.000000e+00 0.000000e+00 0.000000e+00 0.000000e+00 0.000000e+00 0.000000e+00 0.000000e+00 0.000000e+00 0.000000e+00 0.000000e+00 0.000000e+00 3.468565e-02 9.653144e-01 0.000000e+00 0.000000e+00
 0.000000e+00 0.000000e+00 0.000000e+00 0.000000e+00 0.000000e+00 0.000000e+00 0.000000e+00 0.000000e+00 0.000000e+00 0.000000e+00 0.000000e+00 0.000000e+00 5.448496e-03 9.945515e-01 0.000000e+00
 0.000000e+00 0.000000e+00 0.000000e+00 0.000000e+00 0.000000e+00 0.000000e+00 0.000000e+00 0.000000e+00 0.000000e+00 0.000000e+00 0.000000e+00 0.000000e+00 0.000000e+00 5.534397e-02 9.446561e-01
 0.000000e+00 0.000000e+00 0.000000e+00 0.000000e+00 0.000000e+00 0.000000e+00 0.000000e+00 0.000000e+00 0.000000e+00 0.000000e+00 0.000000e+00 0.000000e+00 0.000000e+00 0.000000e+00 0.000000e+00
<ENDHMM>
~h "#u"
<BEGINHMM>
<NUMSTATES> 15
<STATE> 2
<NUMMIXES> 6
<MIXTURE> 1 1.702876e-01
<MEAN> 39
 5.937440e+00 -6.045009e+00 -4.780784e+00 4.028292e+00 -4.050415e+00 -1.197814e+01 -1.362790e+00 6.229884e+00 -1.056192e-01 -2.842910e+00 -2.574132e+00 -1.241071e-01 8.768179e-01 1.833826e+00 4.270697e-01 -2.214153e+00 5.161328e-01 3.207451e+00 -1.223305e-01 -2.965584e+00 2.189723e-01 1.977401e+00 6.510229e-01 -5.900514e-01 -5.222551e-01 -9.193882e-03 -1.760835e-01 5.050902e-01 2.950777e-01 -1.118601e+00 1.598655e-01 1.368487e+00 -1.599786e-01 -1.244717e+00 6.364460e-02 7.376080e-01 1.118274e-01 -3.303275e-01 2.028015e-04
<VARIANCE> 39
 1.413724e+01 2.506226e+01 2.191021e+01 1.893131e+01 3.134642e+01 2.660091e+01 5.022716e+01 4.325434e+01 3.541223e+01 4.020723e+01 4.696338e+01 5.141975e+01 6.553218e-03 4.181337e-01 7.191110e-01 1.563657e+00 2.577254e+00 1.980835e+00 3.870373e+00 2.596357e+00 4.319854e+00 2.362782e+00 2.829071e+00 1.987743e+00 3.257526e+00 1.441622e-04 8.869159e-02 1.664380e-01 2.166741e-01 4.395942e-01 5.489480e-01 3.679979e-01 8.936179e-01 4.914514e-01 7.513498e-01 4.381033e-01 4.956789e-01 4.830647e-01 1.844447e-05
<GCONST> 8.514630e+01
<MIXTURE> 2 1.271327e-01
<MEAN> 39
 9.288774e+00 -3.543497e+00 -9.687305e+00 8.526912e-01 3.405199e+00 -5.310071e+00 -6.481643e+00 1.176421e-02 3.517610e+00 3.295581e+00 -3.393722e+00 -4.234074e+00 8.596873e-01 1.139878e+00 1.069673e+00 -5.664186e-01 -1.225694e+00 1.022185e+00 2.123385e+00 -2.951312e-01 -1.971462e+00 -1.812912e-01 1.824294e+00 1.224941e+00 -5.096780e-01 -7.821007e-03 -2.347519e-01 -2.776210e-03 4.784040e-01 -1.693202e-01 -6.892503e-01 1.695590e-01 8.624824e-01 -4.840364e-03 -8.018831e-01 -3.679545e-01 3.977702e-01 3.960707e-01 1.810185e-04
<VARIANCE> 39
 1.348795e+01 2.314681e+01 2.503001e+01 1.993556e+01 2.552935e+01 3.753239e+01 3.441991e+01 3.839498e+01 3.039819e+01 3.579580e+01 4.095943e+01 3.725829e+01 6.725786e-03 3.597922e-01 5.567454e-01 1.199012e+00 1.496549e+00 2.689472e+00 2.304623e+00 3.004159e+00 2.390401e+00 2.779076e+00 2.467928e+00 2.721176e+00 3.098479e+00 1.660128e-04 5.856082e-02 1.088888e-01 2.284444e-01 2.822909e-01 3.503807e-01 5.040877e-01 4.875019e-01 4.907304e-01 4.052652e-01 5.227309e-01 4.795732e-01 3.893695e-01 1.936927e-05
<GCONST> 8.009015e+01
<MIXTURE> 3 2.411599e-01
<MEAN> 39
 1.010174e+01 2.444001e+00 -6.543685e+00 -3.888977e+00 2.383024e+00 2.154281e-01 -5.647803e-01 -2.002298e-01 -6.905372e-02 4.026157e+00 3.297178e+00 6.518214e-01 7.009993e-01 7.379541e-01 6.525531e-01 -6.560512e-01 -2.379698e-01 -1.408497e-01 1.303923e-01 2.175259e-01 -9.694789e-02 -5.616393e-01 9.578767e-02 5.092825e-01 3.977095e-01 3.654344e-02 -2.914497e-01 -2.075318e-01 9.614298e-02 1.903926e-01 -7.490394e-02 -1.769264e-01 -9.699390e-03 -8.311404e-03 2.537319e-03 -3.115229e-01 -2.811767e-01 -7.018648e-02 -3.814746e-03
<VARIANCE> 39
 2.226020e+01 2.660370e+01 2.716837e+01 2.524909e+01 2.686661e+01 2.661354e+01 3.966948e+01 2.588799e+01 3.360263e+01 2.673965e+01 3.085385e+01 2.415447e+01 1.556250e-02 9.334260e-01 7.585311e-01 1.884284e+00 1.474048e+00 1.712071e+00 1.777589e+00 1.867293e+00 2.179715e+00 2.013024e+00 2.081540e+00 2.047629e+00 2.190885e+00 1.477006e-03 2.064967e-01 1.513562e-01 3.037945e-01 2.851769e-01 2.713952e-01 2.921774e-01 3.864609e-01 3.957664e-01 4.391704e-01 3.485253e-01 3.623322e-01 4.350163e-01 2.698295e-04
<GCONST> 8.469303e+01
<MIXTURE> 4 1.528135e-01
<MEAN> 39
 2.555784e+00 -5.143926e+00 -1.125904e+00 -2.484249e+00 -8.907850e+00 -2.998423e+00 2.083187e+00 -2.799033e+00 -3.402800e+00 -7.434433e-01 -3.671053e-02 -8.861932e-02 9.007537e-01 1.437678e+00 -6.064212e-01 -1.417283e+00 2.041947e+00 8.051737e-02 -2.042791e+00 1.022951e+00 1.420973e+00 -5.894252e-01 -6.250960e-01 -1.549653e-01 -8.475814e-01 -5.832387e-03 1.709877e-01 3.899011e-01 -3.600965e-01 -8.279976e-02 9.460555e-01 -3.258174e-01 -8.567308e-01 3.824581e-01 6.108567e-01 -1.178848e-01 -1.455092e-01 4.385893e-02 -1.078460e-03
<VARIANCE> 39
 2.182433e+01 2.512622e+01 4.614998e+01 4.005269e+01 4.221829e+01 4.421074e+01 7.060953e+01 4.955955e+01 3.325569e+01 5.136285e+01 5.950698e+01 8.035941e+01 5.991283e-03 8.935127e-01 2.345090e+00 1.865193e+00 5.897860e+00 3.523246e+00 4.184834e+00 4.850476e+00 4.803705e+00 3.354125e+00 3.423248e+00 3.182178e+00 5.016259e+00 1.543112e-04 7.282818e-02 2.624091e-01 4.091541e-01 6.156619e-01 7.615339e-01 8.614398e-01 1.113254e+00 8.985254e-01 6.504531e-01 5.918006e-01 5.737875e-01 6.959007e-01 1.544553e-05
<GCONST> 9.869979e+01
<MIXTURE> 5 1.271558e-01
<MEAN> 39
 9.302462e+00 -3.529942e+00 -9.887575e+00 7.980447e-01 3.596823e+00 -4.947975e+00 -6.333409e+00 -2.697824e-01 3.382044e+00 3.485299e+00 -3.280565e+00 -4.272488e+00 8.622388e-01 1.111809e+00 1.071291e+00 -4.944014e-01 -1.220230e+00 8.852965e-01 2.054660e+00 -1.687695e-01 -1.908037e+00 -2.843765e-01 1.755880e+00 1.304167e+00 -4.192010e-01 -8.151827e-03 -2.280681e-01 -1.949304e-02 4.598031e-01 -1.319247e-01 -6.683729e-01 1.093886e-01 8.253941e-01 5.820881e-02 -7.752498e-01 -4.145840e-01 3.680262e-01 4.146601e-01 2.457942e-05
<VARIANCE> 39
 1.333874e+01 2.312161e+01 2.563088e+01 1.976685e+01 2.463912e+01 3.668209e+01 3.359204e+01 3.756895e+01 3.003426e+01 3.538161e+01 4.012975e+01 3.573293e+01 6.262756e-03 3.464852e-01 5.470821e-01 1.163627e+00 1.471510e+00 2.603739e+00 2.324611e+00 2.913629e+00 2.325666e+00 2.693165e+00 2.442174e+00 2.729204e+00 3.039531e+00 1.569173e-04 5.605688e-02 1.038360e-01 2.158675e-01 2.675937e-01 3.464172e-01 4.730997e-01 4.710779e-01 4.644586e-01 3.853876e-01 5.097239e-01 4.692162e-01 3.792354e-01 1.588922e-05
<GCONST> 7.884590e+01
<MIXTURE> 6 1.814483e-01
<MEAN> 39
 1.186195e+01 1.219650e+00 -8.944254e+00 -5.420071e+00 -8.560329e-02 -9.575023e-01 -1.788924e+00 -1.117491e+00 -1.862709e+00 2.209939e+00 -4.504603e-01 -1.255201e+00 8.216215e-01 4.255768e-01 -7.416093e-01 -9.573697e-01 2.227932e-01 -2.656380e-01 -7.602777e-01 -5.037332e-01 -4.216389e-01 -5.760137e-01 -4.806753e-01 -8.061463e-01 -9.909965e-01 5.332701e-02 -8.699427e-01 -7.398038e-02 8.813115e-01 5.673851e-01 2.704807e-01 3.642996e-01 3.010087e-01 2.719271e-01 4.095987e-01 8.049769e-02 1.838885e-01 1.616310e-01 -3.542366e-02
<VARIANCE> 39
 3.191766e+01 3.348013e+01 2.939126e+01 2.333824e+01 2.762359e+01 2.863084e+01 2.476131e+01 2.565844e+01 3.014872e+01 2.915778e+01 3.626038e+01 3.294052e+01 8.724867e-03 1.015500e+00 1.120628e+00 2.267800e+00 2.060217e+00 1.463021e+00 2.070577e+00 2.379510e+00 2.535695e+00 2.716753e+00 3.735303e+00 3.901216e+00 3.916267e+00 6.478573e-04 3.068768e-01 2.456851e-01 4.014782e-01 3.888714e-01 3.482949e-01 3.696701e-01 4.013246e-01 5.098930e-01 4.405756e-01 5.418896e-01 5.766941e-01 5.081112e-01 2.979551e-04
<GCONST> 9.085362e+01
<STATE> 3
<NUMMIXES> 6
<MIXTURE> 1 1.186875e-01
<MEAN> 39
 7.689651e+00 -3.870550e+00 -1.024840e+01 -3.493174e+00 -2.561637e+00 -4.160269e+00 -5.779263e+00 -6.622951e+00 -3.486214e+00 -2.500949e+00 -3.307777e+00 -6.627884e+00 9.043133e-01 2.729988e-01 2.442347e-01 6.161086e-02 6.725614e-02 9.791502e-02 1.359681e-01 4.759568e-02 -1.136822e-01 -1.238597e-01 2.107094e-01 1.479098e-02 -2.579194e-01 -1.733362e-03 1.362481e-01 2.701433e-01 4.291638e-01 3.659591e-01 3.885799e-01 4.560262e-01 6.141113e-01 6.605814e-01 4.733186e-01 2.822232e-01 3.348909e-01 5.176116e-01 -1.751387e-03
<VARIANCE> 39
 2.368036e+01 2.509469e+01 3.809998e+01 2.563264e+01 2.477398e+01 2.792836e+01 2.252861e+01 2.596794e+01 2.956797e+01 2.433283e+01 3.063793e+01 5.030844e+01 4.544515e-03 3.942312e-01 6.426724e-01 1.093332e+00 1.183963e+00 1.134849e+00 1.511933e+00 2.225739e+00 2.405319e+00 1.735679e+00 2.207551e+00 2.172666e+00 2.459855e+00 7.691080e-05 3.736920e-02 7.294554e-02 1.410224e-01 1.770900e-01 1.761533e-01 2.050614e-01 1.980439e-01 2.436714e-01 2.841918e-01 2.597967e-01 2.824049e-01 3.667314e-01 1.295158e-05
<GCONST> 6.895936e+01
<MIXTURE> 2 1.302670e-01
<MEAN> 39
 1.042886e+01 -8.547109e-01 -1.002304e+01 -1.609468e+00 3.552662e+00 -1.400994e-02 -3.497109e+00 -2.714524e+00 1.109449e-01 6.213723e+00 9.574948e-01 -2.733165e+00 8.585902e-01 6.283250e-01 8.384129e-01 3.108048e-01 -6.663907e-01 -2.900695e-01 1.173519e+00 1.003616e+00 -5.207670e-01 -1.087850e+00 1.121255e-01 1.499001e+00 1.134557e+00 -9.307941e-03 -1.501128e-01 -1.486305e-01 1.200852e-01 1.600604e-01 -2.625241e-01 -3.635173e-01 1.369128e-01 4.326236e-01 -5.097579e-02 -5.878941e-01 -2.957372e-01 1.470469e-01 -5.448492e-04
<VARIANCE> 39
 1.504847e+01 2.237931e+01 2.829695e+01 1.924482e+01 2.275869e+01 2.533856e+01 2.224132e+01 2.630581e+01 2.871676e+01 2.099599e+01 2.564029e+01 2.972325e+01 5.739834e-03 2.001802e-01 5.037144e-01 8.254320e-01 1.253692e+00 1.156295e+00 1.568388e+00 1.578525e+00 1.567289e+00 1.732306e+00 1.850962e+00 1.716443e+00 1.760176e+00 1.241738e-04 3.388972e-02 7.621992e-02 1.136677e-01 1.761904e-01 2.154534e-01 2.833207e-01 2.708921e-01 3.043986e-01 2.695394e-01 2.609895e-01 3.088742e-01 2.952702e-01 1.463971e-05
<GCONST> 6.557942e+01
<MIXTURE> 3 2.665527e-01
<MEAN> 39
 2.522818e+00 2.021101e-01 -3.055803e+00 -1.387948e-01 -7.233562e-01 -3.225743e-01 -1.695921e-01 -9.315658e-01 -4.505319e-01 -2.338636e-01 5.082025e-01 1.339127e-01 9.477968e-01 2.845263e-02 8.670179e-02 2.060678e-02 -4.184381e-02 4.391074e-02 1.551862e-01 3.529361e-02 1.600919e-02 6.553880e-02 7.328286e-02 5.328250e-02 1.567974e-02 -3.839578e-03 1.630102e-03 -5.019881e-03 -1.832451e-03 -1.219006e-02 -6.673853e-03 -1.086569e-02 -4.531186e-03 4.189948e-03 -2.504949e-02 1.358759e-02 -1.832440e-02 -1.030468e-02 -6.506593e-04
<VARIANCE> 39
 2.963150e+00 7.574894e+00 1.095024e+01 7.196259e+00 6.902965e+00 8.381711e+00 1.140575e+01 9.003765e+00 1.186127e+01 1.275343e+01 9.694233e+00 1.314713e+01 1.925125e-03 1.012427e-01 2.500027e-01 3.519678e-01 4.152980e-01 5.505353e-01 5.924659e-01 7.207116e-01 7.654309e-01 8.335741e-01 7.547260e-01 7.381566e-01 7.348766e-01 3.754082e-05 1.479285e-02 3.960513e-02 6.013512e-02 6.431386e-02 9.273545e-02 9.760516e-02 1.221334e-01 1.095913e-01 1.255200e-01 1.199565e-01 1.321582e-01 1.071611e-01 3.730628e-06
<GCONST> 2.991118e+01
<MIXTURE> 4 1.909980e-01
<MEAN> 39
 1.210415e+01 8.228917e-01 -8.967963e+00 -3.367670e+00 1.904710e+00 -1.118063e+00 -1.419163e+00 -1.749184e+00 -1.012083e+00 2.143806e+00 7.516826e-01 -1.287375e+00 8.435258e-01 -9.162311e-02 -2.662664e-01 -1.794142e-01 1.446866e-01 -1.547222e-01 -9.512088e-02 -3.232365e-01 -6.751738e-01 -4.943944e-01 -5.134366e-01 -3.448446e-01 -5.722148e-01 1.757668e-02 -1.660490e-01 2.308191e-03 2.806363e-01 4.534281e-02 -4.319061e-02 1.366280e-01 3.322965e-02 7.335667e-03 1.036219e-01 7.538384e-03 6.360868e-02 1.197360e-01 -9.954957e-03
<VARIANCE> 39
 1.849570e+01 3.940599e+01 2.344084e+01 2.472053e+01 2.727542e+01 3.045389e+01 2.678148e+01 2.838293e+01 2.487646e+01 2.979710e+01 3.835891e+01 4.661444e+01 6.831850e-03 4.751227e-01 7.569928e-01 1.310007e+00 1.273042e+00 1.562678e+00 1.417419e+00 2.001016e+00 2.184986e+00 2.144119e+00 2.000706e+00 2.451690e+00 3.834317e+00 2.792519e-04 9.124094e-02 1.319353e-01 2.047411e-01 2.374578e-01 1.842949e-01 2.697051e-01 3.286835e-01 4.224986e-01 3.117891e-01 3.131554e-01 4.212515e-01 5.712280e-01 6.959948e-05
<GCONST> 7.862744e+01
<MIXTURE> 5 1.302324e-01
<MEAN> 39
 1.042615e+01 -8.536102e-01 -1.002407e+01 -1.608928e+00 3.553240e+00 -1.535127e-02 -3.495337e+00 -2.711091e+00 1.125397e-01 6.212249e+00 9.554843e-01 -2.732834e+00 8.586125e-01 6.283192e-01 8.383680e-01 3.106910e-01 -6.656283e-01 -2.899283e-01 1.172749e+00 1.002745e+00 -5.201666e-01 -1.086566e+00 1.128090e-01 1.498725e+00 1.134222e+00 -9.305109e-03 -1.499387e-01 -1.485234e-01 1.200317e-01 1.599038e-01 -2.621548e-01 -3.629266e-01 1.367560e-01 4.320470e-01 -5.101626e-02 -5.873532e-01 -2.954644e-01 1.469326e-01 -5.457242e-04
<VARIANCE> 39
 1.504998e+01 2.238330e+01 2.830122e+01 1.925526e+01 2.276828e+01 2.534619e+01 2.223429e+01 2.630562e+01 2.873022e+01 2.099215e+01 2.564347e+01 2.971397e+01 5.739677e-03 2.001838e-01 5.036809e-01 8.253340e-01 1.253035e+00 1.155749e+00 1.567842e+00 1.577438e+00 1.567057e+00 1.731035e+00 1.850975e+00 1.715575e+00 1.760297e+00 1.241115e-04 3.386641e-02 7.619525e-02 1.135988e-01 1.761470e-01 2.152521e-01 2.831012e-01 2.708209e-01 3.041376e-01 2.695886e-01 2.607932e-01 3.087875e-01 2.950299e-01 1.464295e-05
<GCONST> 6.557072e+01
<MIXTURE> 6 1.632596e-01
<MEAN> 39
 5.575575e+00 -1.284168e+00 -3.421800e+00 -5.850166e-02 -1.911194e+00 -1.686631e+00 -1.970080e-01 4.981075e-01 -8.746833e-01 -1.205081e+00 -1.739339e+00 -2.332170e+00 9.169474e-01 1.184469e-01 4.563531e-02 -5.614923e-04 1.958565e-01 3.452324e-02 6.911305e-03 -7.648151e-02 1.716237e-01 2.551476e-01 -1.143422e-01 -9.410345e-02 -1.989113e-01 -7.439497e-04 -3.189351e-02 1.721761e-02 -1.380944e-01 -1.886816e-01 3.717738e-02 3.170497e-02 -2.456728e-01 -3.296887e-01 -7.738829e-02 1.304097e-01 1.170787e-01 3.917799e-02 -2.828841e-03
<VARIANCE> 39
 1.921315e+01 1.542986e+01 2.689530e+01 1.524087e+01 1.452324e+01 2.327714e+01 1.815352e+01 2.562936e+01 2.792923e+01 2.082233e+01 2.657325e+01 3.594308e+01 6.406604e-03 3.219394e-01 8.595654e-01 1.090564e+00 1.138139e+00 1.083270e+00 1.202127e+00 1.946524e+00 2.201266e+00 1.942679e+00 1.746124e+00 2.278298e+00 1.910748e+00 1.362769e-04 4.161968e-02 1.254244e-01 1.540198e-01 1.661016e-01 1.951376e-01 2.489795e-01 3.017124e-01 3.553259e-01 3.663940e-01 3.072803e-01 3.695112e-01 3.716289e-01 1.613734e-05
<GCONST> 6.858773e+01
<STATE> 4
<NUMMIXES> 6
<MIXTURE> 1 1.011513e-01
<MEAN> 39
 1.213428e+01 -2.060464e+00 -9.004147e+00 -2.024298e+00 1.691029e+00 -3.699418e+00 -1.797339e+00 -3.867931e+00 -7.682751e-01 3.952806e-01 -3.793827e+00 -5.484454e+00 8.366358e-01 6.238384e-01 4.373368e-01 3.102946e-01 3.904226e-01 5.835308e-01 8.654054e-01 4.455803e-01 7.098358e-01 7.290425e-01 8.115586e-01 6.922967e-01 2.898028e-01 -9.550489e-03 -5.216121e-02 6.891181e-02 1.116803e-01 3.531607e-02 1.293683e-02 1.735273e-01 3.286326e-02 9.484779e-02 1.424567e-01 1.927680e-01 2.701509e-01 2.688086e-01 -1.106728e-03
<VARIANCE> 39
 9.173601e+00 2.575298e+01 2.252770e+01 2.004759e+01 2.909142e+01 2.234279e+01 2.715450e+01 3.162236e+01 2.341924e+01 3.343840e+01 3.265144e+01 6.049145e+01 5.266402e-03 3.883355e-01 9.323803e-01 8.807827e-01 1.061064e+00 1.523910e+00 1.507564e+00 1.648147e+00 1.925051e+00 1.869576e+00 1.762149e+00 1.944589e+00 2.525090e+00 1.202454e-04 4.820509e-02 1.315779e-01 1.202969e-01 1.798370e-01 2.133512e-01 2.194768e-01 2.625812e-01 3.748269e-01 3.598382e-01 3.226668e-01 2.995907e-01 5.199325e-01 1.602781e-05
<GCONST> 7.082539e+01
<MIXTURE> 2 1.007627e-01
<MEAN> 39
 1.298266e+01 1.544628e-01 -8.872646e+00 -6.196113e-01 4.935106e+00 1.153742e+00 -2.403065e+00 -1.140896e+00 5.665824e-01 6.561737e+00 3.915766e+00 -3.503829e-01 8.191915e-01 3.295127e-01 4.636076e-01 2.150988e-01 -3.993309e-02 -1.785066e-02 6.005024e-01 3.692936e-01 -1.980317e-01 -4.743529e-02 8.184543e-02 6.741127e-01 5.113416e-01 -9.368636e-03 -1.179241e-01 -5.016646e-02 -1.821075e-02 1.489421e-02 -8.082316e-02 -1.279294e-01 -2.678988e-02 6.078999e-02 1.333040e-02 -1.269373e-01 -2.371705e-01 -1.222070e-01 8.171335e-05
<VARIANCE> 39
 6.950548e+00 2.028242e+01 1.475470e+01 1.686264e+01 1.590048e+01 2.193621e+01 1.651901e+01 3.164051e+01 2.635680e+01 2.088841e+01 1.985376e+01 2.461465e+01 4.487406e-03 1.691068e-01 3.257130e-01 6.508694e-01 7.176852e-01 6.415504e-01 8.306211e-01 8.705095e-01 1.107484e+00 1.199188e+00 1.231536e+00 1.042633e+00 1.092265e+00 7.301176e-05 1.772699e-02 5.904034e-02 7.707172e-02 1.314897e-01 1.179724e-01 1.545867e-01 1.520114e-01 2.228008e-01 1.679228e-01 1.804863e-01 1.961023e-01 1.996052e-01 7.959558e-06
<GCONST> 5.069925e+01
<MIXTURE> 3 3.400690e-01
<MEAN> 39
 1.178647e+01 3.579884e+00 -9.635590e+00 -3.260646e+00 3.191007e+00 8.398960e-01 3.718041e-01 -1.732036e+00 -1.454021e+00 3.923856e+00 3.663695e+00 1.394728e+00 8.290124e-01 1.250455e-01 1.283634e-01 1.844064e-01 1.842473e-02 -3.742125e-02 1.705769e-01 1.109851e-01 -7.229458e-03 1.700524e-01 -4.111531e-02 1.330007e-02 8.428515e-02 -5.801203e-03 -2.193133e-02 -7.858989e-02 3.057095e-02 4.526395e-02 4.427354e-03 4.553492e-03 -1.288868e-01 3.007444e-02 7.782025e-02 4.302519e-02 -6.824221e-02 -1.020123e-01 -1.118395e-03
<VARIANCE> 39
 8.264545e+00 2.734091e+01 2.188575e+01 2.169283e+01 2.209211e+01 1.716909e+01 2.443381e+01 1.833485e+01 2.180615e+01 2.336644e+01 2.272406e+01 2.284321e+01 6.368322e-03 1.417362e-01 2.492239e-01 3.836732e-01 3.803974e-01 3.906304e-01 5.768409e-01 7.285321e-01 7.441859e-01 7.429992e-01 8.184441e-01 8.454964e-01 8.148175e-01 6.667933e-05 1.572997e-02 3.523745e-02 4.983530e-02 7.323655e-02 6.471851e-02 9.871162e-02 1.266411e-01 1.305936e-01 1.350281e-01 1.340874e-01 1.649159e-01 1.333179e-01 5.570591e-06
<GCONST> 4.268382e+01
<MIXTURE> 4 1.577509e-01
<MEAN> 39
 1.275543e+01 2.601726e-02 -8.776194e+00 -4.379425e+00 8.113764e-01 2.437838e+00 1.821534e-01 -3.964315e+00 -5.010819e+00 2.165486e+00 3.109218e+00 8.726153e-01 8.315371e-01 1.861331e-01 3.552070e-01 3.596919e-01 -3.232434e-01 -5.941848e-01 1.208395e-01 6.132274e-01 4.618921e-01 -6.258650e-01 -7.834916e-01 -1.073763e-01 1.932040e-01 -5.246555e-03 -1.270120e-01 -1.662767e-01 -8.989139e-04 3.266403e-01 1.243929e-01 -4.432684e-01 -3.981472e-01 3.189382e-01 6.001809e-01 6.375779e-02 -4.558469e-01 -3.698525e-01 -1.357841e-03
<VARIANCE> 39
 9.835397e+00 3.187210e+01 2.155704e+01 1.805654e+01 3.001512e+01 2.595901e+01 2.362281e+01 2.731079e+01 2.501755e+01 3.070604e+01 2.818283e+01 4.019201e+01 5.954202e-03 3.185520e-01 7.544218e-01 1.248728e+00 1.413775e+00 1.365939e+00 1.456315e+00 1.587483e+00 1.850015e+00 1.899642e+00 1.966326e+00 2.071803e+00 2.920139e+00 2.171012e-04 4.238236e-02 9.979016e-02 1.575049e-01 2.043707e-01 2.377308e-01 2.735660e-01 2.723302e-01 3.701560e-01 2.904944e-01 3.570667e-01 3.488883e-01 3.678379e-01 2.048776e-05
<GCONST> 7.161602e+01
<MIXTURE> 5 1.007576e-01
<MEAN> 39
 1.298252e+01 1.544699e-01 -8.872712e+00 -6.193429e-01 4.934367e+00 1.154204e+00 -2.402571e+00 -1.141108e+00 5.665001e-01 6.560949e+00 3.916137e+00 -3.494256e-01 8.191916e-01 3.295054e-01 4.636552e-01 2.151890e-01 -3.996976e-02 -1.787778e-02 6.005138e-01 3.693180e-01 -1.979272e-01 -4.744462e-02 8.175321e-02 6.741239e-01 5.114386e-01 -9.369005e-03 -1.179394e-01 -5.015698e-02 -1.822406e-02 1.484414e-02 -8.081147e-02 -1.279327e-01 -2.680212e-02 6.074264e-02 1.332015e-02 -1.268996e-01 -2.372023e-01 -1.223037e-01 8.178380e-05
<VARIANCE> 39
 6.951338e+00 2.028252e+01 1.475626e+01 1.686226e+01 1.590099e+01 2.192775e+01 1.651856e+01 3.163608e+01 2.635536e+01 2.088779e+01 1.985310e+01 2.461357e+01 4.487765e-03 1.691050e-01 3.257315e-01 6.509147e-01 7.177311e-01 6.416249e-01 8.306625e-01 8.704937e-01 1.107543e+00 1.199299e+00 1.231657e+00 1.042668e+00 1.092400e+00 7.301829e-05 1.772664e-02 5.904314e-02 7.707111e-02 1.315003e-01 1.179789e-01 1.545787e-01 1.520109e-01 2.227993e-01 1.679421e-01 1.804911e-01 1.961101e-01 1.996066e-01 7.960214e-06
<GCONST> 5.070004e+01
<MIXTURE> 6 1.995055e-01
<MEAN> 39
 1.095157e+01 3.315117e+00 -8.376329e+00 -4.294531e+00 -5.287783e-01 7.829382e-01 -1.137678e+00 -7.906476e-01 -3.808444e+00 8.224111e-01 1.626058e+00 1.671342e+00 8.286302e-01 4.017033e-02 1.044117e-01 -2.096489e-02 7.842974e-02 5.550443e-02 1.611380e-01 9.828220e-02 -1.072228e-01 3.698257e-02 -1.171310e-02 -1.203559e-02 5.055601e-03 1.998349e-04 1.985816e-02 -5.807278e-02 4.843968e-02 2.750185e-02 9.988582e-02 7.728570e-02 -2.558584e-02 -1.006400e-01 1.101036e-01 2.492537e-01 9.950323e-02 -1.361853e-01 -2.770233e-03
<VARIANCE> 39
 1.582181e+01 1.871567e+01 4.185751e+01 1.424437e+01 1.877935e+01 1.331185e+01 2.072826e+01 2.052852e+01 1.770469e+01 2.204489e+01 2.007310e+01 2.258495e+01 5.386356e-03 2.232900e-01 4.812837e-01 7.495801e-01 6.442317e-01 7.097983e-01 9.037926e-01 1.169133e+00 9.605687e-01 1.386941e+00 1.095173e+00 1.234476e+00 1.187769e+00 1.426663e-04 4.635567e-02 7.440679e-02 1.292102e-01 9.241280e-02 1.315917e-01 1.568340e-01 2.181268e-01 1.962169e-01 2.594683e-01 2.213860e-01 2.112163e-01 2.076255e-01 1.491556e-05
<GCONST> 5.662609e+01
<STATE> 5
<NUMMIXES> 6
<MIXTURE> 1 1.266269e-01
<MEAN> 39
 1.363645e+01 2.792397e+00 -7.365194e+00 -4.759731e+00 -3.726433e+00 -9.680778e-01 9.050450e-01 -1.458362e-01 -1.123389e+00 -2.608897e+00 -5.178185e+00 -6.678670e+00 7.837911e-01 4.112971e-01 2.952564e-01 1.339424e-01 5.317814e-01 6.175227e-01 5.538503e-01 -3.173219e-01 3.889482e-01 9.036052e-01 1.062939e+00 5.040656e-01 -6.702515e-02 -8.040650e-03 -4.175117e-02 -9.763592e-02 -1.661780e-01 1.815487e-01 3.560061e-01 1.841947e-01 -1.328570e-01 -2.863614e-01 -7.931896e-03 3.466442e-01 5.727475e-01 3.521998e-01 -1.012073e-03
<VARIANCE> 39
 6.812466e+00 3.347729e+01 1.594611e+01 1.995815e+01 2.134217e+01 2.219734e+01 3.206359e+01 3.265332e+01 3.207087e+01 2.967974e+01 3.649416e+01 4.857535e+01 1.069298e-02 3.274932e-01 5.661288e-01 1.069020e+00 1.287735e+00 1.452306e+00 1.521070e+00 1.637052e+00 2.533567e+00 1.381127e+00 2.265225e+00 3.154846e+00 2.506385e+00 1.947271e-04 4.070232e-02 1.248567e-01 1.622772e-01 1.905298e-01 2.157273e-01 2.626055e-01 4.146158e-01 4.353711e-01 3.966073e-01 3.999165e-01 3.742591e-01 2.942421e-01 1.155294e-05
<GCONST> 7.254117e+01
<MIXTURE> 2 2.047852e-01
<MEAN> 39
 1.207733e+01 3.647483e+00 -4.703547e+00 -1.729304e+00 3.252189e-01 2.236464e+00 3.269466e-01 8.268149e-01 7.114787e-01 2.040205e+00 2.940269e+00 2.600991e-01 7.249534e-01 3.903849e-02 2.770076e-01 2.176575e-01 3.966647e-02 2.163350e-01 3.230186e-01 6.239314e-02 4.578338e-02 1.314787e-01 3.204024e-01 2.808813e-01 1.425141e-01 -1.078223e-02 -3.014271e-02 -1.484104e-02 -9.711285e-02 -4.292273e-02 5.460965e-02 -6.149686e-02 -6.634348e-02 -9.824092e-02 -2.445213e-02 7.918479e-02 -1.970436e-02 -7.723785e-02 1.898669e-04
<VARIANCE> 39
 1.570925e+01 2.630068e+01 2.106847e+01 1.543434e+01 1.689720e+01 1.974010e+01 1.830452e+01 2.173554e+01 2.574128e+01 2.040965e+01 2.408405e+01 3.473109e+01 9.631166e-03 1.626478e-01 5.070604e-01 6.543335e-01 7.722363e-01 7.582066e-01 1.067477e+00 1.173461e+00 1.288262e+00 1.191589e+00 1.107246e+00 1.532193e+00 1.320968e+00 1.154347e-04 3.098618e-02 7.731389e-02 1.086441e-01 1.244362e-01 1.426753e-01 1.943488e-01 2.168493e-01 2.265132e-01 2.250922e-01 2.189744e-01 2.425941e-01 2.589604e-01 1.329542e-05
<GCONST> 5.862902e+01
<MIXTURE> 3 2.474114e-01
<MEAN> 39
 1.343528e+01 2.572073e+00 -8.924912e+00 -2.698527e+00 2.988763e+00 2.747128e+00 -2.902387e-02 -2.121471e+00 -2.816066e+00 4.578803e+00 5.446557e+00 2.725190e+00 7.938275e-01 -1.746313e-01 -4.230497e-01 1.190031e-01 6.286450e-01 6.597150e-01 -2.970588e-02 -8.391588e-01 -2.087122e-01 9.785511e-01 1.014530e+00 1.423342e-01 -6.809596e-01 -6.984075e-03 -1.657783e-01 -1.976380e-01 9.537473e-02 3.350506e-01 1.186485e-01 -4.915327e-01 -4.442887e-01 2.507693e-01 6.198668e-01 1.484133e-01 -5.256703e-01 -4.480550e-01 -3.219177e-04
<VARIANCE> 39
 7.418722e+00 3.231519e+01 1.996124e+01 1.801124e+01 2.307285e+01 2.025683e+01 2.425189e+01 2.472071e+01 2.404255e+01 2.523774e+01 1.969720e+01 2.116315e+01 7.012064e-03 2.523767e-01 5.810704e-01 8.605309e-01 8.250279e-01 9.502564e-01 1.424064e+00 1.381026e+00 1.843180e+00 1.449518e+00 1.593219e+00 1.799057e+00 1.204752e+00 1.548757e-04 3.617964e-02 7.458249e-02 1.218267e-01 1.252421e-01 1.462215e-01 2.643355e-01 1.945547e-01 2.688032e-01 2.223006e-01 2.904094e-01 2.624482e-01 2.043960e-01 1.197750e-05
<GCONST> 6.157798e+01
<MIXTURE> 4 1.058817e-01
<MEAN> 39
 1.225008e+01 -2.616554e+00 -9.383865e+00 -6.258606e+00 -7.586126e-01 2.958238e-01 -2.512609e+00 -5.769206e+00 -6.598886e+00 -3.843739e+00 -3.930382e+00 -7.000306e+00 8.700192e-01 -6.520092e-03 -2.712061e-01 4.575406e-02 2.846675e-01 -3.839859e-01 -7.332713e-01 -4.838648e-01 2.125852e-01 4.593950e-01 -1.524259e-01 -1.049030e+00 -1.468057e+00 -3.214977e-03 3.343165e-02 -6.566200e-02 1.984582e-01 5.179915e-01 3.136272e-01 1.350557e-02 -2.213837e-02 4.160701e-01 6.709343e-01 4.475536e-01 1.454258e-01 2.131447e-01 -1.399859e-03
<VARIANCE> 39
 1.143621e+01 2.754364e+01 1.577543e+01 1.581178e+01 3.001549e+01 3.805394e+01 2.101805e+01 2.948492e+01 3.449760e+01 4.325695e+01 4.545162e+01 4.420941e+01 4.980803e-03 3.179434e-01 6.649333e-01 8.909054e-01 1.518785e+00 1.053998e+00 1.418027e+00 1.711827e+00 2.913495e+00 2.105329e+00 1.963504e+00 1.440086e+00 2.825701e+00 1.085426e-04 2.932063e-02 1.150607e-01 1.290875e-01 2.168244e-01 2.556222e-01 3.061439e-01 3.416580e-01 3.974770e-01 3.560140e-01 3.007780e-01 3.168606e-01 4.689639e-01 7.945946e-06
<GCONST> 7.078639e+01
<MIXTURE> 5 2.047998e-01
<MEAN> 39
 1.207744e+01 3.648319e+00 -4.704151e+00 -1.729980e+00 3.246938e-01 2.235698e+00 3.269453e-01 8.272283e-01 7.105104e-01 2.039703e+00 2.939360e+00 2.597373e-01 7.249627e-01 3.907998e-02 2.770969e-01 2.176199e-01 3.956231e-02 2.163858e-01 3.231085e-01 6.242733e-02 4.572513e-02 1.315290e-01 3.204153e-01 2.809255e-01 1.425411e-01 -1.078242e-02 -3.016560e-02 -1.487263e-02 -9.705481e-02 -4.290439e-02 5.462214e-02 -6.144170e-02 -6.633020e-02 -9.827039e-02 -2.442973e-02 7.921223e-02 -1.965749e-02 -7.721385e-02 1.890738e-04
<VARIANCE> 39
 1.571207e+01 2.629762e+01 2.106751e+01 1.543405e+01 1.689765e+01 1.973917e+01 1.830343e+01 2.173590e+01 2.574214e+01 2.041131e+01 2.408262e+01 3.472765e+01 9.631546e-03 1.626160e-01 5.070084e-01 6.542867e-01 7.721899e-01 7.581083e-01 1.067379e+00 1.173388e+00 1.288292e+00 1.191643e+00 1.107261e+00 1.532098e+00 1.320846e+00 1.154317e-04 3.097616e-02 7.730864e-02 1.086399e-01 1.244257e-01 1.426557e-01 1.943318e-01 2.168274e-01 2.265167e-01 2.250840e-01 2.189829e-01 2.425822e-01 2.589355e-01 1.329208e-05
<GCONST> 5.862693e+01
<MIXTURE> 6 1.104934e-01
<MEAN> 39
 1.419960e+01 -5.053550e-02 -7.798130e+00 -3.688493e-01 2.297725e+00 6.305050e-01 -2.361231e+00 -2.627313e+00 2.698152e+00 3.862068e+00 1.433997e+00 -5.500809e+00 8.296027e-01 2.662566e-02 -1.145357e-01 1.164308e-01 5.921752e-01 6.060088e-01 1.759007e-01 -6.634123e-01 -9.579080e-02 5.951321e-01 9.325776e-01 4.499239e-01 5.803772e-02 -4.674056e-03 -2.313012e-01 -1.574170e-01 -5.188702e-02 6.902353e-02 -2.400925e-01 -5.734236e-01 -9.227268e-02 2.459253e-01 -2.081235e-02 -4.050979e-01 -4.666511e-01 5.289092e-03 -4.727427e-04
<VARIANCE> 39
 7.762247e+00 3.270343e+01 2.222203e+01 2.446900e+01 3.065649e+01 3.529381e+01 2.693633e+01 3.071319e+01 2.530733e+01 3.999792e+01 5.401752e+01 6.853714e+01 5.327857e-03 4.408179e-01 1.408804e+00 1.665190e+00 1.103256e+00 1.812622e+00 1.408829e+00 2.220640e+00 2.455203e+00 1.903685e+00 1.967000e+00 2.254814e+00 2.753917e+00 1.443552e-04 5.656668e-02 2.513873e-01 1.800642e-01 3.005973e-01 2.830544e-01 4.133727e-01 3.880206e-01 5.666212e-01 3.081287e-01 4.059190e-01 4.884901e-01 5.465133e-01 1.854943e-05
<GCONST> 7.906315e+01
<STATE> 6
<NUMMIXES> 6
<MIXTURE> 1 8.075525e-02
<MEAN> 39
 9.692540e+00 -5.994450e+00 -6.798760e+00 4.181356e-01 2.387530e-01 8.022550e-01 -3.990930e+00 -3.021025e+00 -1.108137e+00 -9.999066e-01 -4.347720e-01 -4.191558e+00 8.872371e-01 -5.665408e-02 -2.240406e-01 3.892955e-01 7.602819e-01 3.719305e-01 7.748960e-02 -2.266631e-02 7.723201e-02 7.349608e-01 8.527890e-01 8.195952e-01 6.105468e-01 -5.451007e-03 1.353218e-02 2.175434e-01 5.218961e-02 -2.036956e-01 8.529004e-02 1.755304e-02 2.787523e-01 2.851783e-01 9.496263e-02 1.887967e-01 2.245323e-01 1.705748e-01 -1.308221e-03
<VARIANCE> 39
 1.204915e+01 1.727605e+01 2.290648e+01 2.675633e+01 1.915070e+01 4.265636e+01 1.431088e+01 2.941471e+01 1.592302e+01 2.232408e+01 2.651612e+01 5.413239e+01 1.478791e-03 2.663287e-01 9.314673e-01 5.116274e-01 2.074239e+00 1.883892e+00 1.606134e+00 2.261512e+00 2.372437e+00 1.569394e+00 1.734697e+00 1.219269e+00 2.470198e+00 8.577619e-05 3.356811e-02 1.479565e-01 8.807692e-02 4.872739e-01 2.916964e-01 4.104733e-01 3.787338e-01 5.626262e-01 2.643422e-01 4.792306e-01 3.078410e-01 6.042602e-01 7.458995e-06
<GCONST> 6.932453e+01
<MIXTURE> 2 1.684911e-01
<MEAN> 39
 1.181857e+01 5.516089e+00 -6.648778e+00 -2.400318e+00 2.240168e+00 2.790265e+00 -5.368336e-01 -6.463065e-01 8.356413e-01 5.038421e+00 4.001795e+00 1.313661e+00 7.281852e-01 -2.902957e-04 2.166837e-01 2.632201e-01 8.298935e-02 1.145064e-01 2.473722e-01 1.413939e-01 4.559088e-02 1.433337e-01 2.073628e-01 1.628990e-01 6.933765e-02 -1.537404e-02 -8.747627e-02 -1.049357e-01 1.598117e-01 -3.635941e-03 2.664171e-03 -7.791027e-02 4.106359e-02 6.900015e-02 -7.187366e-02 -1.657937e-01 -1.330970e-01 -8.321200e-02 -2.113118e-03
<VARIANCE> 39
 2.185813e+01 2.332723e+01 2.471145e+01 2.055107e+01 2.056688e+01 2.033131e+01 2.067115e+01 2.059614e+01 2.192110e+01 2.635987e+01 3.163580e+01 2.206471e+01 1.175155e-02 2.043727e-01 4.128226e-01 6.997927e-01 7.373788e-01 6.952400e-01 8.019015e-01 1.163238e+00 1.258610e+00 1.510400e+00 1.020888e+00 1.163614e+00 1.070157e+00 1.237712e-04 3.098666e-02 5.545795e-02 1.284337e-01 1.026479e-01 1.220422e-01 1.593129e-01 1.976508e-01 2.445334e-01 2.183700e-01 2.226336e-01 2.470335e-01 1.663237e-01 1.172320e-05
<GCONST> 5.777831e+01
<MIXTURE> 3 2.423981e-01
<MEAN> 39
 1.273634e+01 -4.577420e-01 -7.744750e+00 3.128535e-01 6.109034e+00 3.931820e-01 -2.953150e+00 -2.703571e+00 2.157396e+00 9.233067e+00 3.034174e+00 -2.239434e+00 8.229205e-01 -3.891551e-01 -3.890083e-01 3.008354e-01 1.191302e+00 1.950642e-01 -1.188514e+00 -1.023916e+00 1.202919e+00 1.832284e+00 2.607899e-01 -1.380313e+00 -8.322393e-01 -4.454388e-03 -1.969844e-01 -8.957922e-02 2.294322e-01 2.343848e-01 -3.642308e-01 -6.281511e-01 7.593135e-02 7.233799e-01 4.401347e-02 -7.859657e-01 -3.157488e-01 2.407091e-01 2.902962e-04
<VARIANCE> 39
 8.509459e+00 2.831802e+01 2.245759e+01 1.732765e+01 1.844006e+01 2.409256e+01 2.349699e+01 2.570714e+01 2.630600e+01 1.595791e+01 2.166280e+01 1.805291e+01 4.159813e-03 1.964286e-01 3.358435e-01 7.329212e-01 6.447059e-01 7.510553e-01 8.826347e-01 1.460682e+00 1.045198e+00 1.306877e+00 1.628110e+00 1.158290e+00 1.602532e+00 7.234396e-05 3.498872e-02 6.815726e-02 1.553253e-01 1.392704e-01 1.495834e-01 2.201669e-01 2.457597e-01 2.623611e-01 2.355092e-01 2.304583e-01 2.061020e-01 2.386988e-01 5.519189e-06
<GCONST> 5.647566e+01
<MIXTURE> 4 1.423374e-01
<MEAN> 39
 1.294760e+01 -4.075788e+00 -8.350645e+00 -2.407827e-01 3.148959e+00 -3.225881e+00 -5.115816e+00 -3.734772e+00 1.645388e+00 2.370910e+00 -5.453450e+00 -1.173154e+01 8.452901e-01 -2.479585e-01 -5.010056e-01 4.022791e-01 1.344038e+00 5.309270e-02 -1.235677e+00 -6.299718e-01 1.381070e+00 1.472100e+00 -7.768507e-02 -9.447655e-01 -2.727213e-01 -5.457721e-03 -1.800049e-01 -1.536700e-02 3.327480e-01 2.101810e-01 -3.939795e-01 -3.341700e-01 5.317275e-01 7.249534e-01 -1.561955e-01 -5.464261e-01 1.444734e-01 9.506716e-01 -8.772055e-04
<VARIANCE> 39
 1.038946e+01 2.449855e+01 2.313857e+01 2.289342e+01 2.138197e+01 3.273285e+01 2.413750e+01 2.878262e+01 3.611415e+01 3.256282e+01 3.375805e+01 3.425168e+01 5.360360e-03 3.521447e-01 7.116721e-01 1.006567e+00 1.125600e+00 1.524042e+00 1.570166e+00 2.451669e+00 1.692667e+00 2.678570e+00 2.477675e+00 2.142034e+00 3.700427e+00 9.504991e-05 5.603256e-02 9.292796e-02 1.485954e-01 2.110178e-01 3.525818e-01 3.431502e-01 4.252567e-01 3.616333e-01 4.599169e-01 3.345919e-01 3.323084e-01 3.722006e-01 1.256768e-05
<GCONST> 7.326555e+01
<MIXTURE> 5 1.684749e-01
<MEAN> 39
